digraph Tree {
node [shape=box] ;
0 [label="X[19] <= 0.5\ngini = 0.113\nsamples = 32417\nvalue = [30462, 1955]"] ;
1 [label="X[126] <= 0.5\ngini = 0.104\nsamples = 31598\nvalue = [29862, 1736]"] ;
0 -> 1 [labeldistance=2.5, labelangle=45, headlabel="True"] ;
2 [label="X[246] <= 1937.5\ngini = 0.095\nsamples = 30440\nvalue = [28923, 1517]"] ;
1 -> 2 ;
3 [label="X[245] <= 0.5\ngini = 0.26\nsamples = 1426\nvalue = [1207, 219]"] ;
2 -> 3 ;
4 [label="X[36] <= 0.5\ngini = 0.24\nsamples = 1339\nvalue = [1152, 187]"] ;
3 -> 4 ;
5 [label="X[117] <= 0.5\ngini = 0.226\nsamples = 1295\nvalue = [1127, 168]"] ;
4 -> 5 ;
6 [label="X[14] <= 0.5\ngini = 0.385\nsamples = 177\nvalue = [131, 46]"] ;
5 -> 6 ;
7 [label="X[132] <= 0.5\ngini = 0.266\nsamples = 76\nvalue = [64, 12]"] ;
6 -> 7 ;
8 [label="X[120] <= 0.5\ngini = 0.19\nsamples = 66\nvalue = [59, 7]"] ;
7 -> 8 ;
9 [label="X[141] <= 0.5\ngini = 0.168\nsamples = 65\nvalue = [59, 6]"] ;
8 -> 9 ;
10 [label="X[123] <= 0.5\ngini = 0.146\nsamples = 63\nvalue = [58, 5]"] ;
9 -> 10 ;
11 [label="X[180] <= 0.5\ngini = 0.123\nsamples = 61\nvalue = [57, 4]"] ;
10 -> 11 ;
12 [label="X[2] <= 0.5\ngini = 0.098\nsamples = 58\nvalue = [55, 3]"] ;
11 -> 12 ;
13 [label="gini = 0.0\nsamples = 37\nvalue = [37, 0]"] ;
12 -> 13 ;
14 [label="X[130] <= 0.5\ngini = 0.245\nsamples = 21\nvalue = [18, 3]"] ;
12 -> 14 ;
15 [label="X[148] <= 0.5\ngini = 0.111\nsamples = 17\nvalue = [16, 1]"] ;
14 -> 15 ;
16 [label="gini = 0.0\nsamples = 15\nvalue = [15, 0]"] ;
15 -> 16 ;
17 [label="X[206] <= 0.5\ngini = 0.5\nsamples = 2\nvalue = [1, 1]"] ;
15 -> 17 ;
18 [label="gini = 0.0\nsamples = 1\nvalue = [0, 1]"] ;
17 -> 18 ;
19 [label="gini = 0.0\nsamples = 1\nvalue = [1, 0]"] ;
17 -> 19 ;
20 [label="X[246] <= 1931.5\ngini = 0.5\nsamples = 4\nvalue = [2, 2]"] ;
14 -> 20 ;
21 [label="gini = 0.0\nsamples = 1\nvalue = [1, 0]"] ;
20 -> 21 ;
22 [label="X[246] <= 1936.5\ngini = 0.444\nsamples = 3\nvalue = [1, 2]"] ;
20 -> 22 ;
23 [label="gini = 0.0\nsamples = 2\nvalue = [0, 2]"] ;
22 -> 23 ;
24 [label="gini = 0.0\nsamples = 1\nvalue = [1, 0]"] ;
22 -> 24 ;
25 [label="X[11] <= 0.5\ngini = 0.444\nsamples = 3\nvalue = [2, 1]"] ;
11 -> 25 ;
26 [label="gini = 0.0\nsamples = 1\nvalue = [0, 1]"] ;
25 -> 26 ;
27 [label="gini = 0.0\nsamples = 2\nvalue = [2, 0]"] ;
25 -> 27 ;
28 [label="X[178] <= 0.5\ngini = 0.5\nsamples = 2\nvalue = [1, 1]"] ;
10 -> 28 ;
29 [label="gini = 0.0\nsamples = 1\nvalue = [0, 1]"] ;
28 -> 29 ;
30 [label="gini = 0.0\nsamples = 1\nvalue = [1, 0]"] ;
28 -> 30 ;
31 [label="X[57] <= 0.5\ngini = 0.5\nsamples = 2\nvalue = [1, 1]"] ;
9 -> 31 ;
32 [label="gini = 0.0\nsamples = 1\nvalue = [1, 0]"] ;
31 -> 32 ;
33 [label="gini = 0.0\nsamples = 1\nvalue = [0, 1]"] ;
31 -> 33 ;
34 [label="gini = 0.0\nsamples = 1\nvalue = [0, 1]"] ;
8 -> 34 ;
35 [label="X[2] <= 0.5\ngini = 0.5\nsamples = 10\nvalue = [5, 5]"] ;
7 -> 35 ;
36 [label="X[180] <= 0.5\ngini = 0.32\nsamples = 5\nvalue = [4, 1]"] ;
35 -> 36 ;
37 [label="gini = 0.0\nsamples = 4\nvalue = [4, 0]"] ;
36 -> 37 ;
38 [label="gini = 0.0\nsamples = 1\nvalue = [0, 1]"] ;
36 -> 38 ;
39 [label="X[246] <= 1936.0\ngini = 0.32\nsamples = 5\nvalue = [1, 4]"] ;
35 -> 39 ;
40 [label="gini = 0.0\nsamples = 4\nvalue = [0, 4]"] ;
39 -> 40 ;
41 [label="gini = 0.0\nsamples = 1\nvalue = [1, 0]"] ;
39 -> 41 ;
42 [label="X[246] <= 1930.5\ngini = 0.447\nsamples = 101\nvalue = [67, 34]"] ;
6 -> 42 ;
43 [label="X[212] <= 0.5\ngini = 0.499\nsamples = 31\nvalue = [15, 16]"] ;
42 -> 43 ;
44 [label="X[207] <= 0.5\ngini = 0.483\nsamples = 27\nvalue = [11, 16]"] ;
43 -> 44 ;
45 [label="X[210] <= 0.5\ngini = 0.5\nsamples = 22\nvalue = [11, 11]"] ;
44 -> 45 ;
46 [label="X[142] <= 0.5\ngini = 0.444\nsamples = 15\nvalue = [10, 5]"] ;
45 -> 46 ;
47 [label="X[246] <= 1928.5\ngini = 0.469\nsamples = 8\nvalue = [3, 5]"] ;
46 -> 47 ;
48 [label="X[122] <= 0.5\ngini = 0.48\nsamples = 5\nvalue = [3, 2]"] ;
47 -> 48 ;
49 [label="gini = 0.0\nsamples = 3\nvalue = [3, 0]"] ;
48 -> 49 ;
50 [label="gini = 0.0\nsamples = 2\nvalue = [0, 2]"] ;
48 -> 50 ;
51 [label="gini = 0.0\nsamples = 3\nvalue = [0, 3]"] ;
47 -> 51 ;
52 [label="gini = 0.0\nsamples = 7\nvalue = [7, 0]"] ;
46 -> 52 ;
53 [label="X[122] <= 0.5\ngini = 0.245\nsamples = 7\nvalue = [1, 6]"] ;
45 -> 53 ;
54 [label="gini = 0.0\nsamples = 6\nvalue = [0, 6]"] ;
53 -> 54 ;
55 [label="gini = 0.0\nsamples = 1\nvalue = [1, 0]"] ;
53 -> 55 ;
56 [label="gini = 0.0\nsamples = 5\nvalue = [0, 5]"] ;
44 -> 56 ;
57 [label="gini = 0.0\nsamples = 4\nvalue = [4, 0]"] ;
43 -> 57 ;
58 [label="X[207] <= 0.5\ngini = 0.382\nsamples = 70\nvalue = [52, 18]"] ;
42 -> 58 ;
59 [label="X[171] <= 0.5\ngini = 0.324\nsamples = 54\nvalue = [43, 11]"] ;
58 -> 59 ;
60 [label="X[180] <= 0.5\ngini = 0.306\nsamples = 53\nvalue = [43, 10]"] ;
59 -> 60 ;
61 [label="X[148] <= 0.5\ngini = 0.286\nsamples = 52\nvalue = [43, 9]"] ;
60 -> 61 ;
62 [label="X[122] <= 0.5\ngini = 0.265\nsamples = 51\nvalue = [43, 8]"] ;
61 -> 62 ;
63 [label="X[193] <= 0.5\ngini = 0.124\nsamples = 30\nvalue = [28, 2]"] ;
62 -> 63 ;
64 [label="X[130] <= 0.5\ngini = 0.069\nsamples = 28\nvalue = [27, 1]"] ;
63 -> 64 ;
65 [label="gini = 0.0\nsamples = 23\nvalue = [23, 0]"] ;
64 -> 65 ;
66 [label="X[181] <= 0.5\ngini = 0.32\nsamples = 5\nvalue = [4, 1]"] ;
64 -> 66 ;
67 [label="X[210] <= 0.5\ngini = 0.5\nsamples = 2\nvalue = [1, 1]"] ;
66 -> 67 ;
68 [label="gini = 0.0\nsamples = 1\nvalue = [0, 1]"] ;
67 -> 68 ;
69 [label="gini = 0.0\nsamples = 1\nvalue = [1, 0]"] ;
67 -> 69 ;
70 [label="gini = 0.0\nsamples = 3\nvalue = [3, 0]"] ;
66 -> 70 ;
71 [label="X[123] <= 0.5\ngini = 0.5\nsamples = 2\nvalue = [1, 1]"] ;
63 -> 71 ;
72 [label="gini = 0.0\nsamples = 1\nvalue = [0, 1]"] ;
71 -> 72 ;
73 [label="gini = 0.0\nsamples = 1\nvalue = [1, 0]"] ;
71 -> 73 ;
74 [label="X[246] <= 1931.5\ngini = 0.408\nsamples = 21\nvalue = [15, 6]"] ;
62 -> 74 ;
75 [label="gini = 0.0\nsamples = 2\nvalue = [0, 2]"] ;
74 -> 75 ;
76 [label="X[144] <= 0.5\ngini = 0.332\nsamples = 19\nvalue = [15, 4]"] ;
74 -> 76 ;
77 [label="X[57] <= 0.5\ngini = 0.219\nsamples = 16\nvalue = [14, 2]"] ;
76 -> 77 ;
78 [label="gini = 0.0\nsamples = 10\nvalue = [10, 0]"] ;
77 -> 78 ;
79 [label="X[142] <= 0.5\ngini = 0.444\nsamples = 6\nvalue = [4, 2]"] ;
77 -> 79 ;
80 [label="gini = 0.0\nsamples = 3\nvalue = [3, 0]"] ;
79 -> 80 ;
81 [label="X[2] <= 0.5\ngini = 0.444\nsamples = 3\nvalue = [1, 2]"] ;
79 -> 81 ;
82 [label="gini = 0.0\nsamples = 2\nvalue = [0, 2]"] ;
81 -> 82 ;
83 [label="gini = 0.0\nsamples = 1\nvalue = [1, 0]"] ;
81 -> 83 ;
84 [label="X[152] <= 0.5\ngini = 0.444\nsamples = 3\nvalue = [1, 2]"] ;
76 -> 84 ;
85 [label="gini = 0.0\nsamples = 1\nvalue = [1, 0]"] ;
84 -> 85 ;
86 [label="gini = 0.0\nsamples = 2\nvalue = [0, 2]"] ;
84 -> 86 ;
87 [label="gini = 0.0\nsamples = 1\nvalue = [0, 1]"] ;
61 -> 87 ;
88 [label="gini = 0.0\nsamples = 1\nvalue = [0, 1]"] ;
60 -> 88 ;
89 [label="gini = 0.0\nsamples = 1\nvalue = [0, 1]"] ;
59 -> 89 ;
90 [label="X[18] <= 0.5\ngini = 0.492\nsamples = 16\nvalue = [9, 7]"] ;
58 -> 90 ;
91 [label="gini = 0.0\nsamples = 3\nvalue = [0, 3]"] ;
90 -> 91 ;
92 [label="X[211] <= 0.5\ngini = 0.426\nsamples = 13\nvalue = [9, 4]"] ;
90 -> 92 ;
93 [label="gini = 0.0\nsamples = 5\nvalue = [5, 0]"] ;
92 -> 93 ;
94 [label="X[152] <= 0.5\ngini = 0.5\nsamples = 8\nvalue = [4, 4]"] ;
92 -> 94 ;
95 [label="X[150] <= 0.5\ngini = 0.444\nsamples = 6\nvalue = [2, 4]"] ;
94 -> 95 ;
96 [label="X[193] <= 0.5\ngini = 0.444\nsamples = 3\nvalue = [2, 1]"] ;
95 -> 96 ;
97 [label="gini = 0.0\nsamples = 2\nvalue = [2, 0]"] ;
96 -> 97 ;
98 [label="gini = 0.0\nsamples = 1\nvalue = [0, 1]"] ;
96 -> 98 ;
99 [label="gini = 0.0\nsamples = 3\nvalue = [0, 3]"] ;
95 -> 99 ;
100 [label="gini = 0.0\nsamples = 2\nvalue = [2, 0]"] ;
94 -> 100 ;
101 [label="X[18] <= 0.5\ngini = 0.194\nsamples = 1118\nvalue = [996, 122]"] ;
5 -> 101 ;
102 [label="X[192] <= 0.5\ngini = 0.293\nsamples = 387\nvalue = [318, 69]"] ;
101 -> 102 ;
103 [label="X[142] <= 0.5\ngini = 0.435\nsamples = 72\nvalue = [49, 23]"] ;
102 -> 103 ;
104 [label="X[246] <= 1923.5\ngini = 0.295\nsamples = 39\nvalue = [32, 7]"] ;
103 -> 104 ;
105 [label="X[144] <= 0.5\ngini = 0.444\nsamples = 3\nvalue = [1, 2]"] ;
104 -> 105 ;
106 [label="gini = 0.0\nsamples = 2\nvalue = [0, 2]"] ;
105 -> 106 ;
107 [label="gini = 0.0\nsamples = 1\nvalue = [1, 0]"] ;
105 -> 107 ;
108 [label="X[197] <= 0.5\ngini = 0.239\nsamples = 36\nvalue = [31, 5]"] ;
104 -> 108 ;
109 [label="X[210] <= 0.5\ngini = 0.202\nsamples = 35\nvalue = [31, 4]"] ;
108 -> 109 ;
110 [label="X[205] <= 0.5\ngini = 0.161\nsamples = 34\nvalue = [31, 3]"] ;
109 -> 110 ;
111 [label="X[4] <= 0.5\ngini = 0.114\nsamples = 33\nvalue = [31, 2]"] ;
110 -> 111 ;
112 [label="X[191] <= 0.5\ngini = 0.061\nsamples = 32\nvalue = [31, 1]"] ;
111 -> 112 ;
113 [label="gini = 0.0\nsamples = 30\nvalue = [30, 0]"] ;
112 -> 113 ;
114 [label="X[143] <= 0.5\ngini = 0.5\nsamples = 2\nvalue = [1, 1]"] ;
112 -> 114 ;
115 [label="gini = 0.0\nsamples = 1\nvalue = [1, 0]"] ;
114 -> 115 ;
116 [label="gini = 0.0\nsamples = 1\nvalue = [0, 1]"] ;
114 -> 116 ;
117 [label="gini = 0.0\nsamples = 1\nvalue = [0, 1]"] ;
111 -> 117 ;
118 [label="gini = 0.0\nsamples = 1\nvalue = [0, 1]"] ;
110 -> 118 ;
119 [label="gini = 0.0\nsamples = 1\nvalue = [0, 1]"] ;
109 -> 119 ;
120 [label="gini = 0.0\nsamples = 1\nvalue = [0, 1]"] ;
108 -> 120 ;
121 [label="X[193] <= 0.5\ngini = 0.5\nsamples = 33\nvalue = [17, 16]"] ;
103 -> 121 ;
122 [label="X[2] <= 0.5\ngini = 0.486\nsamples = 24\nvalue = [10, 14]"] ;
121 -> 122 ;
123 [label="X[201] <= 0.5\ngini = 0.496\nsamples = 22\nvalue = [10, 12]"] ;
122 -> 123 ;
124 [label="X[35] <= 0.5\ngini = 0.48\nsamples = 20\nvalue = [8, 12]"] ;
123 -> 124 ;
125 [label="X[47] <= 0.5\ngini = 0.498\nsamples = 17\nvalue = [8, 9]"] ;
124 -> 125 ;
126 [label="gini = 0.0\nsamples = 1\nvalue = [1, 0]"] ;
125 -> 126 ;
127 [label="X[183] <= 0.5\ngini = 0.492\nsamples = 16\nvalue = [7, 9]"] ;
125 -> 127 ;
128 [label="gini = 0.0\nsamples = 2\nvalue = [0, 2]"] ;
127 -> 128 ;
129 [label="X[246] <= 1932.5\ngini = 0.5\nsamples = 14\nvalue = [7, 7]"] ;
127 -> 129 ;
130 [label="X[198] <= 0.5\ngini = 0.444\nsamples = 6\nvalue = [2, 4]"] ;
129 -> 130 ;
131 [label="gini = 0.0\nsamples = 3\nvalue = [0, 3]"] ;
130 -> 131 ;
132 [label="X[15] <= 0.5\ngini = 0.444\nsamples = 3\nvalue = [2, 1]"] ;
130 -> 132 ;
133 [label="gini = 0.0\nsamples = 2\nvalue = [2, 0]"] ;
132 -> 133 ;
134 [label="gini = 0.0\nsamples = 1\nvalue = [0, 1]"] ;
132 -> 134 ;
135 [label="X[53] <= 0.5\ngini = 0.469\nsamples = 8\nvalue = [5, 3]"] ;
129 -> 135 ;
136 [label="gini = 0.0\nsamples = 1\nvalue = [0, 1]"] ;
135 -> 136 ;
137 [label="X[246] <= 1935.5\ngini = 0.408\nsamples = 7\nvalue = [5, 2]"] ;
135 -> 137 ;
138 [label="gini = 0.0\nsamples = 4\nvalue = [4, 0]"] ;
137 -> 138 ;
139 [label="X[182] <= 0.5\ngini = 0.444\nsamples = 3\nvalue = [1, 2]"] ;
137 -> 139 ;
140 [label="gini = 0.0\nsamples = 1\nvalue = [1, 0]"] ;
139 -> 140 ;
141 [label="gini = 0.0\nsamples = 2\nvalue = [0, 2]"] ;
139 -> 141 ;
142 [label="gini = 0.0\nsamples = 3\nvalue = [0, 3]"] ;
124 -> 142 ;
143 [label="gini = 0.0\nsamples = 2\nvalue = [2, 0]"] ;
123 -> 143 ;
144 [label="gini = 0.0\nsamples = 2\nvalue = [0, 2]"] ;
122 -> 144 ;
145 [label="X[180] <= 0.5\ngini = 0.346\nsamples = 9\nvalue = [7, 2]"] ;
121 -> 145 ;
146 [label="gini = 0.0\nsamples = 6\nvalue = [6, 0]"] ;
145 -> 146 ;
147 [label="X[215] <= 0.5\ngini = 0.444\nsamples = 3\nvalue = [1, 2]"] ;
145 -> 147 ;
148 [label="gini = 0.0\nsamples = 2\nvalue = [0, 2]"] ;
147 -> 148 ;
149 [label="gini = 0.0\nsamples = 1\nvalue = [1, 0]"] ;
147 -> 149 ;
150 [label="X[172] <= 0.5\ngini = 0.249\nsamples = 315\nvalue = [269, 46]"] ;
102 -> 150 ;
151 [label="X[202] <= 0.5\ngini = 0.242\nsamples = 313\nvalue = [269, 44]"] ;
150 -> 151 ;
152 [label="X[30] <= 0.5\ngini = 0.229\nsamples = 304\nvalue = [264, 40]"] ;
151 -> 152 ;
153 [label="X[69] <= 0.5\ngini = 0.224\nsamples = 303\nvalue = [264, 39]"] ;
152 -> 153 ;
154 [label="X[176] <= 0.5\ngini = 0.22\nsamples = 302\nvalue = [264, 38]"] ;
153 -> 154 ;
155 [label="X[240] <= 0.5\ngini = 0.42\nsamples = 20\nvalue = [14, 6]"] ;
154 -> 155 ;
156 [label="gini = 0.0\nsamples = 5\nvalue = [5, 0]"] ;
155 -> 156 ;
157 [label="X[246] <= 1935.5\ngini = 0.48\nsamples = 15\nvalue = [9, 6]"] ;
155 -> 157 ;
158 [label="X[143] <= 0.5\ngini = 0.426\nsamples = 13\nvalue = [9, 4]"] ;
157 -> 158 ;
159 [label="X[38] <= 0.5\ngini = 0.494\nsamples = 9\nvalue = [5, 4]"] ;
158 -> 159 ;
160 [label="X[246] <= 1930.5\ngini = 0.408\nsamples = 7\nvalue = [5, 2]"] ;
159 -> 160 ;
161 [label="gini = 0.0\nsamples = 4\nvalue = [4, 0]"] ;
160 -> 161 ;
162 [label="X[144] <= 0.5\ngini = 0.444\nsamples = 3\nvalue = [1, 2]"] ;
160 -> 162 ;
163 [label="gini = 0.0\nsamples = 2\nvalue = [0, 2]"] ;
162 -> 163 ;
164 [label="gini = 0.0\nsamples = 1\nvalue = [1, 0]"] ;
162 -> 164 ;
165 [label="gini = 0.0\nsamples = 2\nvalue = [0, 2]"] ;
159 -> 165 ;
166 [label="gini = 0.0\nsamples = 4\nvalue = [4, 0]"] ;
158 -> 166 ;
167 [label="gini = 0.0\nsamples = 2\nvalue = [0, 2]"] ;
157 -> 167 ;
168 [label="X[41] <= 0.5\ngini = 0.201\nsamples = 282\nvalue = [250, 32]"] ;
154 -> 168 ;
169 [label="X[152] <= 0.5\ngini = 0.193\nsamples = 278\nvalue = [248, 30]"] ;
168 -> 169 ;
170 [label="X[73] <= 0.5\ngini = 0.119\nsamples = 126\nvalue = [118, 8]"] ;
169 -> 170 ;
171 [label="X[156] <= 0.5\ngini = 0.106\nsamples = 125\nvalue = [118, 7]"] ;
170 -> 171 ;
172 [label="X[34] <= 0.5\ngini = 0.081\nsamples = 119\nvalue = [114, 5]"] ;
171 -> 172 ;
173 [label="X[51] <= 0.5\ngini = 0.066\nsamples = 117\nvalue = [113, 4]"] ;
172 -> 173 ;
174 [label="X[143] <= 0.5\ngini = 0.052\nsamples = 112\nvalue = [109, 3]"] ;
173 -> 174 ;
175 [label="X[141] <= 0.5\ngini = 0.021\nsamples = 94\nvalue = [93, 1]"] ;
174 -> 175 ;
176 [label="gini = 0.0\nsamples = 85\nvalue = [85, 0]"] ;
175 -> 176 ;
177 [label="X[37] <= 0.5\ngini = 0.198\nsamples = 9\nvalue = [8, 1]"] ;
175 -> 177 ;
178 [label="gini = 0.0\nsamples = 7\nvalue = [7, 0]"] ;
177 -> 178 ;
179 [label="X[246] <= 1930.5\ngini = 0.5\nsamples = 2\nvalue = [1, 1]"] ;
177 -> 179 ;
180 [label="gini = 0.0\nsamples = 1\nvalue = [0, 1]"] ;
179 -> 180 ;
181 [label="gini = 0.0\nsamples = 1\nvalue = [1, 0]"] ;
179 -> 181 ;
182 [label="X[38] <= 0.5\ngini = 0.198\nsamples = 18\nvalue = [16, 2]"] ;
174 -> 182 ;
183 [label="X[175] <= 0.5\ngini = 0.117\nsamples = 16\nvalue = [15, 1]"] ;
182 -> 183 ;
184 [label="gini = 0.0\nsamples = 14\nvalue = [14, 0]"] ;
183 -> 184 ;
185 [label="X[246] <= 1933.5\ngini = 0.5\nsamples = 2\nvalue = [1, 1]"] ;
183 -> 185 ;
186 [label="gini = 0.0\nsamples = 1\nvalue = [0, 1]"] ;
185 -> 186 ;
187 [label="gini = 0.0\nsamples = 1\nvalue = [1, 0]"] ;
185 -> 187 ;
188 [label="X[246] <= 1930.5\ngini = 0.5\nsamples = 2\nvalue = [1, 1]"] ;
182 -> 188 ;
189 [label="gini = 0.0\nsamples = 1\nvalue = [1, 0]"] ;
188 -> 189 ;
190 [label="gini = 0.0\nsamples = 1\nvalue = [0, 1]"] ;
188 -> 190 ;
191 [label="X[146] <= 0.5\ngini = 0.32\nsamples = 5\nvalue = [4, 1]"] ;
173 -> 191 ;
192 [label="gini = 0.0\nsamples = 4\nvalue = [4, 0]"] ;
191 -> 192 ;
193 [label="gini = 0.0\nsamples = 1\nvalue = [0, 1]"] ;
191 -> 193 ;
194 [label="X[52] <= 0.5\ngini = 0.5\nsamples = 2\nvalue = [1, 1]"] ;
172 -> 194 ;
195 [label="gini = 0.0\nsamples = 1\nvalue = [1, 0]"] ;
194 -> 195 ;
196 [label="gini = 0.0\nsamples = 1\nvalue = [0, 1]"] ;
194 -> 196 ;
197 [label="X[142] <= 0.5\ngini = 0.444\nsamples = 6\nvalue = [4, 2]"] ;
171 -> 197 ;
198 [label="gini = 0.0\nsamples = 4\nvalue = [4, 0]"] ;
197 -> 198 ;
199 [label="gini = 0.0\nsamples = 2\nvalue = [0, 2]"] ;
197 -> 199 ;
200 [label="gini = 0.0\nsamples = 1\nvalue = [0, 1]"] ;
170 -> 200 ;
201 [label="X[146] <= 0.5\ngini = 0.248\nsamples = 152\nvalue = [130, 22]"] ;
169 -> 201 ;
202 [label="X[210] <= 0.5\ngini = 0.239\nsamples = 151\nvalue = [130, 21]"] ;
201 -> 202 ;
203 [label="X[142] <= 0.5\ngini = 0.212\nsamples = 141\nvalue = [124, 17]"] ;
202 -> 203 ;
204 [label="X[215] <= 0.5\ngini = 0.283\nsamples = 88\nvalue = [73, 15]"] ;
203 -> 204 ;
205 [label="X[37] <= 0.5\ngini = 0.252\nsamples = 81\nvalue = [69, 12]"] ;
204 -> 205 ;
206 [label="X[246] <= 1925.5\ngini = 0.175\nsamples = 62\nvalue = [56, 6]"] ;
205 -> 206 ;
207 [label="X[141] <= 0.5\ngini = 0.444\nsamples = 6\nvalue = [4, 2]"] ;
206 -> 207 ;
208 [label="X[211] <= 0.5\ngini = 0.32\nsamples = 5\nvalue = [4, 1]"] ;
207 -> 208 ;
209 [label="gini = 0.0\nsamples = 3\nvalue = [3, 0]"] ;
208 -> 209 ;
210 [label="X[183] <= 0.5\ngini = 0.5\nsamples = 2\nvalue = [1, 1]"] ;
208 -> 210 ;
211 [label="gini = 0.0\nsamples = 1\nvalue = [1, 0]"] ;
210 -> 211 ;
212 [label="gini = 0.0\nsamples = 1\nvalue = [0, 1]"] ;
210 -> 212 ;
213 [label="gini = 0.0\nsamples = 1\nvalue = [0, 1]"] ;
207 -> 213 ;
214 [label="X[185] <= 0.5\ngini = 0.133\nsamples = 56\nvalue = [52, 4]"] ;
206 -> 214 ;
215 [label="X[214] <= 0.5\ngini = 0.077\nsamples = 50\nvalue = [48, 2]"] ;
214 -> 215 ;
216 [label="X[184] <= 0.5\ngini = 0.042\nsamples = 47\nvalue = [46, 1]"] ;
215 -> 216 ;
217 [label="gini = 0.0\nsamples = 42\nvalue = [42, 0]"] ;
216 -> 217 ;
218 [label="X[181] <= 0.5\ngini = 0.32\nsamples = 5\nvalue = [4, 1]"] ;
216 -> 218 ;
219 [label="gini = 0.0\nsamples = 3\nvalue = [3, 0]"] ;
218 -> 219 ;
220 [label="X[143] <= 0.5\ngini = 0.5\nsamples = 2\nvalue = [1, 1]"] ;
218 -> 220 ;
221 [label="gini = 0.0\nsamples = 1\nvalue = [0, 1]"] ;
220 -> 221 ;
222 [label="gini = 0.0\nsamples = 1\nvalue = [1, 0]"] ;
220 -> 222 ;
223 [label="X[246] <= 1932.5\ngini = 0.444\nsamples = 3\nvalue = [2, 1]"] ;
215 -> 223 ;
224 [label="gini = 0.0\nsamples = 1\nvalue = [0, 1]"] ;
223 -> 224 ;
225 [label="gini = 0.0\nsamples = 2\nvalue = [2, 0]"] ;
223 -> 225 ;
226 [label="X[58] <= 0.5\ngini = 0.444\nsamples = 6\nvalue = [4, 2]"] ;
214 -> 226 ;
227 [label="gini = 0.0\nsamples = 4\nvalue = [4, 0]"] ;
226 -> 227 ;
228 [label="gini = 0.0\nsamples = 2\nvalue = [0, 2]"] ;
226 -> 228 ;
229 [label="X[56] <= 0.5\ngini = 0.432\nsamples = 19\nvalue = [13, 6]"] ;
205 -> 229 ;
230 [label="X[143] <= 0.5\ngini = 0.337\nsamples = 14\nvalue = [11, 3]"] ;
229 -> 230 ;
231 [label="gini = 0.0\nsamples = 5\nvalue = [5, 0]"] ;
230 -> 231 ;
232 [label="X[246] <= 1928.0\ngini = 0.444\nsamples = 9\nvalue = [6, 3]"] ;
230 -> 232 ;
233 [label="gini = 0.0\nsamples = 1\nvalue = [0, 1]"] ;
232 -> 233 ;
234 [label="X[58] <= 0.5\ngini = 0.375\nsamples = 8\nvalue = [6, 2]"] ;
232 -> 234 ;
235 [label="X[14] <= 0.5\ngini = 0.5\nsamples = 4\nvalue = [2, 2]"] ;
234 -> 235 ;
236 [label="gini = 0.0\nsamples = 1\nvalue = [1, 0]"] ;
235 -> 236 ;
237 [label="X[246] <= 1935.0\ngini = 0.444\nsamples = 3\nvalue = [1, 2]"] ;
235 -> 237 ;
238 [label="gini = 0.0\nsamples = 2\nvalue = [0, 2]"] ;
237 -> 238 ;
239 [label="gini = 0.0\nsamples = 1\nvalue = [1, 0]"] ;
237 -> 239 ;
240 [label="gini = 0.0\nsamples = 4\nvalue = [4, 0]"] ;
234 -> 240 ;
241 [label="X[81] <= 0.5\ngini = 0.48\nsamples = 5\nvalue = [2, 3]"] ;
229 -> 241 ;
242 [label="gini = 0.0\nsamples = 1\nvalue = [1, 0]"] ;
241 -> 242 ;
243 [label="X[246] <= 1929.5\ngini = 0.375\nsamples = 4\nvalue = [1, 3]"] ;
241 -> 243 ;
244 [label="gini = 0.0\nsamples = 1\nvalue = [1, 0]"] ;
243 -> 244 ;
245 [label="gini = 0.0\nsamples = 3\nvalue = [0, 3]"] ;
243 -> 245 ;
246 [label="X[246] <= 1933.0\ngini = 0.49\nsamples = 7\nvalue = [4, 3]"] ;
204 -> 246 ;
247 [label="X[57] <= 0.5\ngini = 0.375\nsamples = 4\nvalue = [1, 3]"] ;
246 -> 247 ;
248 [label="gini = 0.0\nsamples = 1\nvalue = [1, 0]"] ;
247 -> 248 ;
249 [label="gini = 0.0\nsamples = 3\nvalue = [0, 3]"] ;
247 -> 249 ;
250 [label="gini = 0.0\nsamples = 3\nvalue = [3, 0]"] ;
246 -> 250 ;
251 [label="X[58] <= 0.5\ngini = 0.073\nsamples = 53\nvalue = [51, 2]"] ;
203 -> 251 ;
252 [label="gini = 0.0\nsamples = 43\nvalue = [43, 0]"] ;
251 -> 252 ;
253 [label="X[39] <= 0.5\ngini = 0.32\nsamples = 10\nvalue = [8, 2]"] ;
251 -> 253 ;
254 [label="X[246] <= 1936.0\ngini = 0.198\nsamples = 9\nvalue = [8, 1]"] ;
253 -> 254 ;
255 [label="gini = 0.0\nsamples = 8\nvalue = [8, 0]"] ;
254 -> 255 ;
256 [label="gini = 0.0\nsamples = 1\nvalue = [0, 1]"] ;
254 -> 256 ;
257 [label="gini = 0.0\nsamples = 1\nvalue = [0, 1]"] ;
253 -> 257 ;
258 [label="X[142] <= 0.5\ngini = 0.48\nsamples = 10\nvalue = [6, 4]"] ;
202 -> 258 ;
259 [label="gini = 0.0\nsamples = 5\nvalue = [5, 0]"] ;
258 -> 259 ;
260 [label="X[15] <= 0.5\ngini = 0.32\nsamples = 5\nvalue = [1, 4]"] ;
258 -> 260 ;
261 [label="X[0] <= 0.5\ngini = 0.5\nsamples = 2\nvalue = [1, 1]"] ;
260 -> 261 ;
262 [label="gini = 0.0\nsamples = 1\nvalue = [0, 1]"] ;
261 -> 262 ;
263 [label="gini = 0.0\nsamples = 1\nvalue = [1, 0]"] ;
261 -> 263 ;
264 [label="gini = 0.0\nsamples = 3\nvalue = [0, 3]"] ;
260 -> 264 ;
265 [label="gini = 0.0\nsamples = 1\nvalue = [0, 1]"] ;
201 -> 265 ;
266 [label="X[211] <= 0.5\ngini = 0.5\nsamples = 4\nvalue = [2, 2]"] ;
168 -> 266 ;
267 [label="gini = 0.0\nsamples = 2\nvalue = [2, 0]"] ;
266 -> 267 ;
268 [label="gini = 0.0\nsamples = 2\nvalue = [0, 2]"] ;
266 -> 268 ;
269 [label="gini = 0.0\nsamples = 1\nvalue = [0, 1]"] ;
153 -> 269 ;
270 [label="gini = 0.0\nsamples = 1\nvalue = [0, 1]"] ;
152 -> 270 ;
271 [label="X[152] <= 0.5\ngini = 0.494\nsamples = 9\nvalue = [5, 4]"] ;
151 -> 271 ;
272 [label="X[22] <= 0.5\ngini = 0.32\nsamples = 5\nvalue = [4, 1]"] ;
271 -> 272 ;
273 [label="gini = 0.0\nsamples = 3\nvalue = [3, 0]"] ;
272 -> 273 ;
274 [label="X[215] <= 0.5\ngini = 0.5\nsamples = 2\nvalue = [1, 1]"] ;
272 -> 274 ;
275 [label="gini = 0.0\nsamples = 1\nvalue = [0, 1]"] ;
274 -> 275 ;
276 [label="gini = 0.0\nsamples = 1\nvalue = [1, 0]"] ;
274 -> 276 ;
277 [label="X[246] <= 1931.0\ngini = 0.375\nsamples = 4\nvalue = [1, 3]"] ;
271 -> 277 ;
278 [label="gini = 0.0\nsamples = 1\nvalue = [1, 0]"] ;
277 -> 278 ;
279 [label="gini = 0.0\nsamples = 3\nvalue = [0, 3]"] ;
277 -> 279 ;
280 [label="gini = 0.0\nsamples = 2\nvalue = [0, 2]"] ;
150 -> 280 ;
281 [label="X[244] <= 0.5\ngini = 0.134\nsamples = 731\nvalue = [678, 53]"] ;
101 -> 281 ;
282 [label="gini = 0.0\nsamples = 190\nvalue = [190, 0]"] ;
281 -> 282 ;
283 [label="X[171] <= 0.5\ngini = 0.177\nsamples = 541\nvalue = [488, 53]"] ;
281 -> 283 ;
284 [label="X[206] <= 0.5\ngini = 0.165\nsamples = 530\nvalue = [482, 48]"] ;
283 -> 284 ;
285 [label="X[200] <= 0.5\ngini = 0.198\nsamples = 431\nvalue = [383, 48]"] ;
284 -> 285 ;
286 [label="X[156] <= 0.5\ngini = 0.195\nsamples = 430\nvalue = [383, 47]"] ;
285 -> 286 ;
287 [label="X[246] <= 1930.5\ngini = 0.176\nsamples = 389\nvalue = [351, 38]"] ;
286 -> 287 ;
288 [label="X[165] <= 0.5\ngini = 0.276\nsamples = 103\nvalue = [86, 17]"] ;
287 -> 288 ;
289 [label="X[69] <= 0.5\ngini = 0.265\nsamples = 102\nvalue = [86, 16]"] ;
288 -> 289 ;
290 [label="X[14] <= 0.5\ngini = 0.253\nsamples = 101\nvalue = [86, 15]"] ;
289 -> 290 ;
291 [label="X[163] <= 0.5\ngini = 0.097\nsamples = 39\nvalue = [37, 2]"] ;
290 -> 291 ;
292 [label="gini = 0.0\nsamples = 36\nvalue = [36, 0]"] ;
291 -> 292 ;
293 [label="X[56] <= 0.5\ngini = 0.444\nsamples = 3\nvalue = [1, 2]"] ;
291 -> 293 ;
294 [label="gini = 0.0\nsamples = 2\nvalue = [0, 2]"] ;
293 -> 294 ;
295 [label="gini = 0.0\nsamples = 1\nvalue = [1, 0]"] ;
293 -> 295 ;
296 [label="X[199] <= 0.5\ngini = 0.331\nsamples = 62\nvalue = [49, 13]"] ;
290 -> 296 ;
297 [label="X[197] <= 0.5\ngini = 0.316\nsamples = 61\nvalue = [49, 12]"] ;
296 -> 297 ;
298 [label="X[193] <= 0.5\ngini = 0.299\nsamples = 60\nvalue = [49, 11]"] ;
297 -> 298 ;
299 [label="X[184] <= 0.5\ngini = 0.26\nsamples = 52\nvalue = [44, 8]"] ;
298 -> 299 ;
300 [label="X[201] <= 0.5\ngini = 0.184\nsamples = 39\nvalue = [35, 4]"] ;
299 -> 300 ;
301 [label="gini = 0.0\nsamples = 20\nvalue = [20, 0]"] ;
300 -> 301 ;
302 [label="X[134] <= 0.5\ngini = 0.332\nsamples = 19\nvalue = [15, 4]"] ;
300 -> 302 ;
303 [label="X[151] <= 0.5\ngini = 0.278\nsamples = 18\nvalue = [15, 3]"] ;
302 -> 303 ;
304 [label="X[209] <= 0.5\ngini = 0.208\nsamples = 17\nvalue = [15, 2]"] ;
303 -> 304 ;
305 [label="gini = 0.0\nsamples = 10\nvalue = [10, 0]"] ;
304 -> 305 ;
306 [label="X[246] <= 1925.5\ngini = 0.408\nsamples = 7\nvalue = [5, 2]"] ;
304 -> 306 ;
307 [label="gini = 0.0\nsamples = 1\nvalue = [0, 1]"] ;
306 -> 307 ;
308 [label="X[181] <= 0.5\ngini = 0.278\nsamples = 6\nvalue = [5, 1]"] ;
306 -> 308 ;
309 [label="X[58] <= 0.5\ngini = 0.444\nsamples = 3\nvalue = [2, 1]"] ;
308 -> 309 ;
310 [label="X[152] <= 0.5\ngini = 0.5\nsamples = 2\nvalue = [1, 1]"] ;
309 -> 310 ;
311 [label="gini = 0.0\nsamples = 1\nvalue = [1, 0]"] ;
310 -> 311 ;
312 [label="gini = 0.0\nsamples = 1\nvalue = [0, 1]"] ;
310 -> 312 ;
313 [label="gini = 0.0\nsamples = 1\nvalue = [1, 0]"] ;
309 -> 313 ;
314 [label="gini = 0.0\nsamples = 3\nvalue = [3, 0]"] ;
308 -> 314 ;
315 [label="gini = 0.0\nsamples = 1\nvalue = [0, 1]"] ;
303 -> 315 ;
316 [label="gini = 0.0\nsamples = 1\nvalue = [0, 1]"] ;
302 -> 316 ;
317 [label="X[211] <= 0.5\ngini = 0.426\nsamples = 13\nvalue = [9, 4]"] ;
299 -> 317 ;
318 [label="X[144] <= 0.5\ngini = 0.198\nsamples = 9\nvalue = [8, 1]"] ;
317 -> 318 ;
319 [label="gini = 0.0\nsamples = 5\nvalue = [5, 0]"] ;
318 -> 319 ;
320 [label="X[162] <= 0.5\ngini = 0.375\nsamples = 4\nvalue = [3, 1]"] ;
318 -> 320 ;
321 [label="gini = 0.0\nsamples = 3\nvalue = [3, 0]"] ;
320 -> 321 ;
322 [label="gini = 0.0\nsamples = 1\nvalue = [0, 1]"] ;
320 -> 322 ;
323 [label="X[201] <= 0.5\ngini = 0.375\nsamples = 4\nvalue = [1, 3]"] ;
317 -> 323 ;
324 [label="gini = 0.0\nsamples = 3\nvalue = [0, 3]"] ;
323 -> 324 ;
325 [label="gini = 0.0\nsamples = 1\nvalue = [1, 0]"] ;
323 -> 325 ;
326 [label="X[10] <= 0.5\ngini = 0.469\nsamples = 8\nvalue = [5, 3]"] ;
298 -> 326 ;
327 [label="gini = 0.0\nsamples = 2\nvalue = [0, 2]"] ;
326 -> 327 ;
328 [label="X[56] <= 0.5\ngini = 0.278\nsamples = 6\nvalue = [5, 1]"] ;
326 -> 328 ;
329 [label="gini = 0.0\nsamples = 5\nvalue = [5, 0]"] ;
328 -> 329 ;
330 [label="gini = 0.0\nsamples = 1\nvalue = [0, 1]"] ;
328 -> 330 ;
331 [label="gini = 0.0\nsamples = 1\nvalue = [0, 1]"] ;
297 -> 331 ;
332 [label="gini = 0.0\nsamples = 1\nvalue = [0, 1]"] ;
296 -> 332 ;
333 [label="gini = 0.0\nsamples = 1\nvalue = [0, 1]"] ;
289 -> 333 ;
334 [label="gini = 0.0\nsamples = 1\nvalue = [0, 1]"] ;
288 -> 334 ;
335 [label="X[1] <= 0.5\ngini = 0.136\nsamples = 286\nvalue = [265, 21]"] ;
287 -> 335 ;
336 [label="X[180] <= 0.5\ngini = 0.206\nsamples = 103\nvalue = [91, 12]"] ;
335 -> 336 ;
337 [label="X[148] <= 0.5\ngini = 0.192\nsamples = 102\nvalue = [91, 11]"] ;
336 -> 337 ;
338 [label="X[208] <= 0.5\ngini = 0.156\nsamples = 94\nvalue = [86, 8]"] ;
337 -> 338 ;
339 [label="X[205] <= 0.5\ngini = 0.141\nsamples = 92\nvalue = [85, 7]"] ;
338 -> 339 ;
340 [label="X[5] <= 0.5\ngini = 0.111\nsamples = 85\nvalue = [80, 5]"] ;
339 -> 340 ;
341 [label="X[185] <= 0.5\ngini = 0.093\nsamples = 82\nvalue = [78, 4]"] ;
340 -> 341 ;
342 [label="X[58] <= 0.5\ngini = 0.074\nsamples = 78\nvalue = [75, 3]"] ;
341 -> 342 ;
343 [label="X[142] <= 0.5\ngini = 0.117\nsamples = 48\nvalue = [45, 3]"] ;
342 -> 343 ;
344 [label="X[212] <= 0.5\ngini = 0.059\nsamples = 33\nvalue = [32, 1]"] ;
343 -> 344 ;
345 [label="gini = 0.0\nsamples = 26\nvalue = [26, 0]"] ;
344 -> 345 ;
346 [label="X[183] <= 0.5\ngini = 0.245\nsamples = 7\nvalue = [6, 1]"] ;
344 -> 346 ;
347 [label="gini = 0.0\nsamples = 5\nvalue = [5, 0]"] ;
346 -> 347 ;
348 [label="X[57] <= 0.5\ngini = 0.5\nsamples = 2\nvalue = [1, 1]"] ;
346 -> 348 ;
349 [label="gini = 0.0\nsamples = 1\nvalue = [1, 0]"] ;
348 -> 349 ;
350 [label="gini = 0.0\nsamples = 1\nvalue = [0, 1]"] ;
348 -> 350 ;
351 [label="X[246] <= 1932.0\ngini = 0.231\nsamples = 15\nvalue = [13, 2]"] ;
343 -> 351 ;
352 [label="gini = 0.0\nsamples = 1\nvalue = [0, 1]"] ;
351 -> 352 ;
353 [label="X[158] <= 0.5\ngini = 0.133\nsamples = 14\nvalue = [13, 1]"] ;
351 -> 353 ;
354 [label="gini = 0.0\nsamples = 11\nvalue = [11, 0]"] ;
353 -> 354 ;
355 [label="X[201] <= 0.5\ngini = 0.444\nsamples = 3\nvalue = [2, 1]"] ;
353 -> 355 ;
356 [label="gini = 0.0\nsamples = 1\nvalue = [0, 1]"] ;
355 -> 356 ;
357 [label="gini = 0.0\nsamples = 2\nvalue = [2, 0]"] ;
355 -> 357 ;
358 [label="gini = 0.0\nsamples = 30\nvalue = [30, 0]"] ;
342 -> 358 ;
359 [label="X[201] <= 0.5\ngini = 0.375\nsamples = 4\nvalue = [3, 1]"] ;
341 -> 359 ;
360 [label="gini = 0.0\nsamples = 3\nvalue = [3, 0]"] ;
359 -> 360 ;
361 [label="gini = 0.0\nsamples = 1\nvalue = [0, 1]"] ;
359 -> 361 ;
362 [label="X[193] <= 0.5\ngini = 0.444\nsamples = 3\nvalue = [2, 1]"] ;
340 -> 362 ;
363 [label="gini = 0.0\nsamples = 2\nvalue = [2, 0]"] ;
362 -> 363 ;
364 [label="gini = 0.0\nsamples = 1\nvalue = [0, 1]"] ;
362 -> 364 ;
365 [label="X[236] <= 0.5\ngini = 0.408\nsamples = 7\nvalue = [5, 2]"] ;
339 -> 365 ;
366 [label="gini = 0.0\nsamples = 1\nvalue = [0, 1]"] ;
365 -> 366 ;
367 [label="X[60] <= 0.5\ngini = 0.278\nsamples = 6\nvalue = [5, 1]"] ;
365 -> 367 ;
368 [label="gini = 0.0\nsamples = 5\nvalue = [5, 0]"] ;
367 -> 368 ;
369 [label="gini = 0.0\nsamples = 1\nvalue = [0, 1]"] ;
367 -> 369 ;
370 [label="X[201] <= 0.5\ngini = 0.5\nsamples = 2\nvalue = [1, 1]"] ;
338 -> 370 ;
371 [label="gini = 0.0\nsamples = 1\nvalue = [0, 1]"] ;
370 -> 371 ;
372 [label="gini = 0.0\nsamples = 1\nvalue = [1, 0]"] ;
370 -> 372 ;
373 [label="X[183] <= 0.5\ngini = 0.469\nsamples = 8\nvalue = [5, 3]"] ;
337 -> 373 ;
374 [label="X[205] <= 0.5\ngini = 0.48\nsamples = 5\nvalue = [2, 3]"] ;
373 -> 374 ;
375 [label="X[246] <= 1936.5\ngini = 0.375\nsamples = 4\nvalue = [1, 3]"] ;
374 -> 375 ;
376 [label="gini = 0.0\nsamples = 3\nvalue = [0, 3]"] ;
375 -> 376 ;
377 [label="gini = 0.0\nsamples = 1\nvalue = [1, 0]"] ;
375 -> 377 ;
378 [label="gini = 0.0\nsamples = 1\nvalue = [1, 0]"] ;
374 -> 378 ;
379 [label="gini = 0.0\nsamples = 3\nvalue = [3, 0]"] ;
373 -> 379 ;
380 [label="gini = 0.0\nsamples = 1\nvalue = [0, 1]"] ;
336 -> 380 ;
381 [label="X[183] <= 0.5\ngini = 0.094\nsamples = 183\nvalue = [174, 9]"] ;
335 -> 381 ;
382 [label="X[246] <= 1936.5\ngini = 0.028\nsamples = 70\nvalue = [69, 1]"] ;
381 -> 382 ;
383 [label="gini = 0.0\nsamples = 56\nvalue = [56, 0]"] ;
382 -> 383 ;
384 [label="X[142] <= 0.5\ngini = 0.133\nsamples = 14\nvalue = [13, 1]"] ;
382 -> 384 ;
385 [label="gini = 0.0\nsamples = 10\nvalue = [10, 0]"] ;
384 -> 385 ;
386 [label="X[182] <= 0.5\ngini = 0.375\nsamples = 4\nvalue = [3, 1]"] ;
384 -> 386 ;
387 [label="gini = 0.0\nsamples = 3\nvalue = [3, 0]"] ;
386 -> 387 ;
388 [label="gini = 0.0\nsamples = 1\nvalue = [0, 1]"] ;
386 -> 388 ;
389 [label="X[149] <= 0.5\ngini = 0.132\nsamples = 113\nvalue = [105, 8]"] ;
381 -> 389 ;
390 [label="X[199] <= 0.5\ngini = 0.106\nsamples = 107\nvalue = [101, 6]"] ;
389 -> 390 ;
391 [label="X[163] <= 0.5\ngini = 0.092\nsamples = 104\nvalue = [99, 5]"] ;
390 -> 391 ;
392 [label="X[144] <= 0.5\ngini = 0.064\nsamples = 90\nvalue = [87, 3]"] ;
391 -> 392 ;
393 [label="X[212] <= 0.5\ngini = 0.03\nsamples = 65\nvalue = [64, 1]"] ;
392 -> 393 ;
394 [label="gini = 0.0\nsamples = 55\nvalue = [55, 0]"] ;
393 -> 394 ;
395 [label="X[201] <= 0.5\ngini = 0.18\nsamples = 10\nvalue = [9, 1]"] ;
393 -> 395 ;
396 [label="gini = 0.0\nsamples = 6\nvalue = [6, 0]"] ;
395 -> 396 ;
397 [label="X[152] <= 0.5\ngini = 0.375\nsamples = 4\nvalue = [3, 1]"] ;
395 -> 397 ;
398 [label="gini = 0.0\nsamples = 3\nvalue = [3, 0]"] ;
397 -> 398 ;
399 [label="gini = 0.0\nsamples = 1\nvalue = [0, 1]"] ;
397 -> 399 ;
400 [label="X[246] <= 1931.5\ngini = 0.147\nsamples = 25\nvalue = [23, 2]"] ;
392 -> 400 ;
401 [label="X[211] <= 0.5\ngini = 0.5\nsamples = 2\nvalue = [1, 1]"] ;
400 -> 401 ;
402 [label="gini = 0.0\nsamples = 1\nvalue = [1, 0]"] ;
401 -> 402 ;
403 [label="gini = 0.0\nsamples = 1\nvalue = [0, 1]"] ;
401 -> 403 ;
404 [label="X[209] <= 0.5\ngini = 0.083\nsamples = 23\nvalue = [22, 1]"] ;
400 -> 404 ;
405 [label="gini = 0.0\nsamples = 16\nvalue = [16, 0]"] ;
404 -> 405 ;
406 [label="X[181] <= 0.5\ngini = 0.245\nsamples = 7\nvalue = [6, 1]"] ;
404 -> 406 ;
407 [label="X[151] <= 0.5\ngini = 0.5\nsamples = 2\nvalue = [1, 1]"] ;
406 -> 407 ;
408 [label="gini = 0.0\nsamples = 1\nvalue = [0, 1]"] ;
407 -> 408 ;
409 [label="gini = 0.0\nsamples = 1\nvalue = [1, 0]"] ;
407 -> 409 ;
410 [label="gini = 0.0\nsamples = 5\nvalue = [5, 0]"] ;
406 -> 410 ;
411 [label="X[246] <= 1935.5\ngini = 0.245\nsamples = 14\nvalue = [12, 2]"] ;
391 -> 411 ;
412 [label="X[145] <= 0.5\ngini = 0.142\nsamples = 13\nvalue = [12, 1]"] ;
411 -> 412 ;
413 [label="gini = 0.0\nsamples = 10\nvalue = [10, 0]"] ;
412 -> 413 ;
414 [label="X[178] <= 0.5\ngini = 0.444\nsamples = 3\nvalue = [2, 1]"] ;
412 -> 414 ;
415 [label="gini = 0.0\nsamples = 1\nvalue = [0, 1]"] ;
414 -> 415 ;
416 [label="gini = 0.0\nsamples = 2\nvalue = [2, 0]"] ;
414 -> 416 ;
417 [label="gini = 0.0\nsamples = 1\nvalue = [0, 1]"] ;
411 -> 417 ;
418 [label="X[142] <= 0.5\ngini = 0.444\nsamples = 3\nvalue = [2, 1]"] ;
390 -> 418 ;
419 [label="gini = 0.0\nsamples = 2\nvalue = [2, 0]"] ;
418 -> 419 ;
420 [label="gini = 0.0\nsamples = 1\nvalue = [0, 1]"] ;
418 -> 420 ;
421 [label="X[182] <= 0.5\ngini = 0.444\nsamples = 6\nvalue = [4, 2]"] ;
389 -> 421 ;
422 [label="gini = 0.0\nsamples = 2\nvalue = [0, 2]"] ;
421 -> 422 ;
423 [label="gini = 0.0\nsamples = 4\nvalue = [4, 0]"] ;
421 -> 423 ;
424 [label="X[180] <= 0.5\ngini = 0.343\nsamples = 41\nvalue = [32, 9]"] ;
286 -> 424 ;
425 [label="X[208] <= 0.5\ngini = 0.32\nsamples = 40\nvalue = [32, 8]"] ;
424 -> 425 ;
426 [label="X[56] <= 0.5\ngini = 0.295\nsamples = 39\nvalue = [32, 7]"] ;
425 -> 426 ;
427 [label="X[198] <= 0.5\ngini = 0.35\nsamples = 31\nvalue = [24, 7]"] ;
426 -> 427 ;
428 [label="X[1] <= 0.5\ngini = 0.32\nsamples = 30\nvalue = [24, 6]"] ;
427 -> 428 ;
429 [label="X[60] <= 0.5\ngini = 0.5\nsamples = 4\nvalue = [2, 2]"] ;
428 -> 429 ;
430 [label="X[15] <= 0.5\ngini = 0.444\nsamples = 3\nvalue = [1, 2]"] ;
429 -> 430 ;
431 [label="gini = 0.0\nsamples = 1\nvalue = [1, 0]"] ;
430 -> 431 ;
432 [label="gini = 0.0\nsamples = 2\nvalue = [0, 2]"] ;
430 -> 432 ;
433 [label="gini = 0.0\nsamples = 1\nvalue = [1, 0]"] ;
429 -> 433 ;
434 [label="X[185] <= 0.5\ngini = 0.26\nsamples = 26\nvalue = [22, 4]"] ;
428 -> 434 ;
435 [label="X[246] <= 1933.5\ngini = 0.219\nsamples = 24\nvalue = [21, 3]"] ;
434 -> 435 ;
436 [label="X[15] <= 0.5\ngini = 0.305\nsamples = 16\nvalue = [13, 3]"] ;
435 -> 436 ;
437 [label="X[201] <= 0.5\ngini = 0.18\nsamples = 10\nvalue = [9, 1]"] ;
436 -> 437 ;
438 [label="X[209] <= 0.5\ngini = 0.5\nsamples = 2\nvalue = [1, 1]"] ;
437 -> 438 ;
439 [label="gini = 0.0\nsamples = 1\nvalue = [1, 0]"] ;
438 -> 439 ;
440 [label="gini = 0.0\nsamples = 1\nvalue = [0, 1]"] ;
438 -> 440 ;
441 [label="gini = 0.0\nsamples = 8\nvalue = [8, 0]"] ;
437 -> 441 ;
442 [label="X[211] <= 0.5\ngini = 0.444\nsamples = 6\nvalue = [4, 2]"] ;
436 -> 442 ;
443 [label="gini = 0.0\nsamples = 4\nvalue = [4, 0]"] ;
442 -> 443 ;
444 [label="gini = 0.0\nsamples = 2\nvalue = [0, 2]"] ;
442 -> 444 ;
445 [label="gini = 0.0\nsamples = 8\nvalue = [8, 0]"] ;
435 -> 445 ;
446 [label="X[246] <= 1934.0\ngini = 0.5\nsamples = 2\nvalue = [1, 1]"] ;
434 -> 446 ;
447 [label="gini = 0.0\nsamples = 1\nvalue = [1, 0]"] ;
446 -> 447 ;
448 [label="gini = 0.0\nsamples = 1\nvalue = [0, 1]"] ;
446 -> 448 ;
449 [label="gini = 0.0\nsamples = 1\nvalue = [0, 1]"] ;
427 -> 449 ;
450 [label="gini = 0.0\nsamples = 8\nvalue = [8, 0]"] ;
426 -> 450 ;
451 [label="gini = 0.0\nsamples = 1\nvalue = [0, 1]"] ;
425 -> 451 ;
452 [label="gini = 0.0\nsamples = 1\nvalue = [0, 1]"] ;
424 -> 452 ;
453 [label="gini = 0.0\nsamples = 1\nvalue = [0, 1]"] ;
285 -> 453 ;
454 [label="gini = 0.0\nsamples = 99\nvalue = [99, 0]"] ;
284 -> 454 ;
455 [label="X[236] <= 0.5\ngini = 0.496\nsamples = 11\nvalue = [6, 5]"] ;
283 -> 455 ;
456 [label="gini = 0.0\nsamples = 3\nvalue = [0, 3]"] ;
455 -> 456 ;
457 [label="X[246] <= 1935.5\ngini = 0.375\nsamples = 8\nvalue = [6, 2]"] ;
455 -> 457 ;
458 [label="X[211] <= 0.5\ngini = 0.245\nsamples = 7\nvalue = [6, 1]"] ;
457 -> 458 ;
459 [label="gini = 0.0\nsamples = 4\nvalue = [4, 0]"] ;
458 -> 459 ;
460 [label="X[246] <= 1930.0\ngini = 0.444\nsamples = 3\nvalue = [2, 1]"] ;
458 -> 460 ;
461 [label="gini = 0.0\nsamples = 2\nvalue = [2, 0]"] ;
460 -> 461 ;
462 [label="gini = 0.0\nsamples = 1\nvalue = [0, 1]"] ;
460 -> 462 ;
463 [label="gini = 0.0\nsamples = 1\nvalue = [0, 1]"] ;
457 -> 463 ;
464 [label="X[192] <= 0.5\ngini = 0.491\nsamples = 44\nvalue = [25, 19]"] ;
4 -> 464 ;
465 [label="X[142] <= 0.5\ngini = 0.375\nsamples = 12\nvalue = [3, 9]"] ;
464 -> 465 ;
466 [label="X[53] <= 0.5\ngini = 0.18\nsamples = 10\nvalue = [1, 9]"] ;
465 -> 466 ;
467 [label="X[15] <= 0.5\ngini = 0.5\nsamples = 2\nvalue = [1, 1]"] ;
466 -> 467 ;
468 [label="gini = 0.0\nsamples = 1\nvalue = [0, 1]"] ;
467 -> 468 ;
469 [label="gini = 0.0\nsamples = 1\nvalue = [1, 0]"] ;
467 -> 469 ;
470 [label="gini = 0.0\nsamples = 8\nvalue = [0, 8]"] ;
466 -> 470 ;
471 [label="gini = 0.0\nsamples = 2\nvalue = [2, 0]"] ;
465 -> 471 ;
472 [label="X[142] <= 0.5\ngini = 0.43\nsamples = 32\nvalue = [22, 10]"] ;
464 -> 472 ;
473 [label="X[246] <= 1935.5\ngini = 0.32\nsamples = 25\nvalue = [20, 5]"] ;
472 -> 473 ;
474 [label="X[163] <= 0.5\ngini = 0.188\nsamples = 19\nvalue = [17, 2]"] ;
473 -> 474 ;
475 [label="X[212] <= 0.5\ngini = 0.111\nsamples = 17\nvalue = [16, 1]"] ;
474 -> 475 ;
476 [label="gini = 0.0\nsamples = 15\nvalue = [15, 0]"] ;
475 -> 476 ;
477 [label="X[60] <= 0.5\ngini = 0.5\nsamples = 2\nvalue = [1, 1]"] ;
475 -> 477 ;
478 [label="gini = 0.0\nsamples = 1\nvalue = [1, 0]"] ;
477 -> 478 ;
479 [label="gini = 0.0\nsamples = 1\nvalue = [0, 1]"] ;
477 -> 479 ;
480 [label="X[56] <= 0.5\ngini = 0.5\nsamples = 2\nvalue = [1, 1]"] ;
474 -> 480 ;
481 [label="gini = 0.0\nsamples = 1\nvalue = [1, 0]"] ;
480 -> 481 ;
482 [label="gini = 0.0\nsamples = 1\nvalue = [0, 1]"] ;
480 -> 482 ;
483 [label="X[211] <= 0.5\ngini = 0.5\nsamples = 6\nvalue = [3, 3]"] ;
473 -> 483 ;
484 [label="gini = 0.0\nsamples = 3\nvalue = [3, 0]"] ;
483 -> 484 ;
485 [label="gini = 0.0\nsamples = 3\nvalue = [0, 3]"] ;
483 -> 485 ;
486 [label="X[186] <= 0.5\ngini = 0.408\nsamples = 7\nvalue = [2, 5]"] ;
472 -> 486 ;
487 [label="X[226] <= 0.5\ngini = 0.278\nsamples = 6\nvalue = [1, 5]"] ;
486 -> 487 ;
488 [label="gini = 0.0\nsamples = 5\nvalue = [0, 5]"] ;
487 -> 488 ;
489 [label="gini = 0.0\nsamples = 1\nvalue = [1, 0]"] ;
487 -> 489 ;
490 [label="gini = 0.0\nsamples = 1\nvalue = [1, 0]"] ;
486 -> 490 ;
491 [label="X[163] <= 0.5\ngini = 0.465\nsamples = 87\nvalue = [55, 32]"] ;
3 -> 491 ;
492 [label="X[156] <= 0.5\ngini = 0.45\nsamples = 82\nvalue = [54, 28]"] ;
491 -> 492 ;
493 [label="X[37] <= 0.5\ngini = 0.421\nsamples = 73\nvalue = [51, 22]"] ;
492 -> 493 ;
494 [label="X[194] <= 0.5\ngini = 0.382\nsamples = 66\nvalue = [49, 17]"] ;
493 -> 494 ;
495 [label="X[190] <= 0.5\ngini = 0.359\nsamples = 64\nvalue = [49, 15]"] ;
494 -> 495 ;
496 [label="X[184] <= 0.5\ngini = 0.32\nsamples = 60\nvalue = [48, 12]"] ;
495 -> 496 ;
497 [label="X[196] <= 0.5\ngini = 0.289\nsamples = 57\nvalue = [47, 10]"] ;
496 -> 497 ;
498 [label="X[84] <= 0.5\ngini = 0.237\nsamples = 51\nvalue = [44, 7]"] ;
497 -> 498 ;
499 [label="X[61] <= 0.5\ngini = 0.211\nsamples = 50\nvalue = [44, 6]"] ;
498 -> 499 ;
500 [label="X[118] <= 0.5\ngini = 0.183\nsamples = 49\nvalue = [44, 5]"] ;
499 -> 500 ;
501 [label="X[203] <= 0.5\ngini = 0.153\nsamples = 48\nvalue = [44, 4]"] ;
500 -> 501 ;
502 [label="gini = 0.0\nsamples = 34\nvalue = [34, 0]"] ;
501 -> 502 ;
503 [label="X[246] <= 1933.0\ngini = 0.408\nsamples = 14\nvalue = [10, 4]"] ;
501 -> 503 ;
504 [label="gini = 0.0\nsamples = 6\nvalue = [6, 0]"] ;
503 -> 504 ;
505 [label="X[14] <= 0.5\ngini = 0.5\nsamples = 8\nvalue = [4, 4]"] ;
503 -> 505 ;
506 [label="gini = 0.0\nsamples = 3\nvalue = [0, 3]"] ;
505 -> 506 ;
507 [label="X[18] <= 0.5\ngini = 0.32\nsamples = 5\nvalue = [4, 1]"] ;
505 -> 507 ;
508 [label="gini = 0.0\nsamples = 1\nvalue = [0, 1]"] ;
507 -> 508 ;
509 [label="gini = 0.0\nsamples = 4\nvalue = [4, 0]"] ;
507 -> 509 ;
510 [label="gini = 0.0\nsamples = 1\nvalue = [0, 1]"] ;
500 -> 510 ;
511 [label="gini = 0.0\nsamples = 1\nvalue = [0, 1]"] ;
499 -> 511 ;
512 [label="gini = 0.0\nsamples = 1\nvalue = [0, 1]"] ;
498 -> 512 ;
513 [label="X[14] <= 0.5\ngini = 0.5\nsamples = 6\nvalue = [3, 3]"] ;
497 -> 513 ;
514 [label="X[58] <= 0.5\ngini = 0.375\nsamples = 4\nvalue = [3, 1]"] ;
513 -> 514 ;
515 [label="gini = 0.0\nsamples = 1\nvalue = [0, 1]"] ;
514 -> 515 ;
516 [label="gini = 0.0\nsamples = 3\nvalue = [3, 0]"] ;
514 -> 516 ;
517 [label="gini = 0.0\nsamples = 2\nvalue = [0, 2]"] ;
513 -> 517 ;
518 [label="X[199] <= 0.5\ngini = 0.444\nsamples = 3\nvalue = [1, 2]"] ;
496 -> 518 ;
519 [label="gini = 0.0\nsamples = 2\nvalue = [0, 2]"] ;
518 -> 519 ;
520 [label="gini = 0.0\nsamples = 1\nvalue = [1, 0]"] ;
518 -> 520 ;
521 [label="X[58] <= 0.5\ngini = 0.375\nsamples = 4\nvalue = [1, 3]"] ;
495 -> 521 ;
522 [label="gini = 0.0\nsamples = 3\nvalue = [0, 3]"] ;
521 -> 522 ;
523 [label="gini = 0.0\nsamples = 1\nvalue = [1, 0]"] ;
521 -> 523 ;
524 [label="gini = 0.0\nsamples = 2\nvalue = [0, 2]"] ;
494 -> 524 ;
525 [label="X[211] <= 0.5\ngini = 0.408\nsamples = 7\nvalue = [2, 5]"] ;
493 -> 525 ;
526 [label="gini = 0.0\nsamples = 4\nvalue = [0, 4]"] ;
525 -> 526 ;
527 [label="X[159] <= 0.5\ngini = 0.444\nsamples = 3\nvalue = [2, 1]"] ;
525 -> 527 ;
528 [label="gini = 0.0\nsamples = 2\nvalue = [2, 0]"] ;
527 -> 528 ;
529 [label="gini = 0.0\nsamples = 1\nvalue = [0, 1]"] ;
527 -> 529 ;
530 [label="X[201] <= 0.5\ngini = 0.444\nsamples = 9\nvalue = [3, 6]"] ;
492 -> 530 ;
531 [label="X[142] <= 0.5\ngini = 0.48\nsamples = 5\nvalue = [3, 2]"] ;
530 -> 531 ;
532 [label="gini = 0.0\nsamples = 3\nvalue = [3, 0]"] ;
531 -> 532 ;
533 [label="gini = 0.0\nsamples = 2\nvalue = [0, 2]"] ;
531 -> 533 ;
534 [label="gini = 0.0\nsamples = 4\nvalue = [0, 4]"] ;
530 -> 534 ;
535 [label="X[2] <= 0.5\ngini = 0.32\nsamples = 5\nvalue = [1, 4]"] ;
491 -> 535 ;
536 [label="gini = 0.0\nsamples = 4\nvalue = [0, 4]"] ;
535 -> 536 ;
537 [label="gini = 0.0\nsamples = 1\nvalue = [1, 0]"] ;
535 -> 537 ;
538 [label="X[156] <= 0.5\ngini = 0.085\nsamples = 29014\nvalue = [27716, 1298]"] ;
2 -> 538 ;
539 [label="X[18] <= 0.5\ngini = 0.074\nsamples = 26853\nvalue = [25821, 1032]"] ;
538 -> 539 ;
540 [label="X[181] <= 0.5\ngini = 0.122\nsamples = 9282\nvalue = [8678, 604]"] ;
539 -> 540 ;
541 [label="X[117] <= 0.5\ngini = 0.069\nsamples = 4809\nvalue = [4637, 172]"] ;
540 -> 541 ;
542 [label="X[73] <= 0.5\ngini = 0.182\nsamples = 532\nvalue = [478, 54]"] ;
541 -> 542 ;
543 [label="X[218] <= 0.5\ngini = 0.131\nsamples = 425\nvalue = [395, 30]"] ;
542 -> 543 ;
544 [label="X[26] <= 0.5\ngini = 0.127\nsamples = 424\nvalue = [395, 29]"] ;
543 -> 544 ;
545 [label="X[132] <= 0.5\ngini = 0.117\nsamples = 416\nvalue = [390, 26]"] ;
544 -> 545 ;
546 [label="X[246] <= 1951.0\ngini = 0.092\nsamples = 371\nvalue = [353, 18]"] ;
545 -> 546 ;
547 [label="X[209] <= 0.5\ngini = 0.34\nsamples = 23\nvalue = [18, 5]"] ;
546 -> 547 ;
548 [label="X[227] <= 0.5\ngini = 0.124\nsamples = 15\nvalue = [14, 1]"] ;
547 -> 548 ;
549 [label="gini = 0.0\nsamples = 14\nvalue = [14, 0]"] ;
548 -> 549 ;
550 [label="gini = 0.0\nsamples = 1\nvalue = [0, 1]"] ;
548 -> 550 ;
551 [label="X[244] <= 0.5\ngini = 0.5\nsamples = 8\nvalue = [4, 4]"] ;
547 -> 551 ;
552 [label="X[127] <= 0.5\ngini = 0.32\nsamples = 5\nvalue = [4, 1]"] ;
551 -> 552 ;
553 [label="gini = 0.0\nsamples = 4\nvalue = [4, 0]"] ;
552 -> 553 ;
554 [label="gini = 0.0\nsamples = 1\nvalue = [0, 1]"] ;
552 -> 554 ;
555 [label="gini = 0.0\nsamples = 3\nvalue = [0, 3]"] ;
551 -> 555 ;
556 [label="X[226] <= 0.5\ngini = 0.072\nsamples = 348\nvalue = [335, 13]"] ;
546 -> 556 ;
557 [label="X[223] <= 0.5\ngini = 0.054\nsamples = 326\nvalue = [317, 9]"] ;
556 -> 557 ;
558 [label="X[24] <= 0.5\ngini = 0.048\nsamples = 323\nvalue = [315, 8]"] ;
557 -> 558 ;
559 [label="X[210] <= 0.5\ngini = 0.038\nsamples = 310\nvalue = [304, 6]"] ;
558 -> 559 ;
560 [label="X[205] <= 0.5\ngini = 0.021\nsamples = 284\nvalue = [281, 3]"] ;
559 -> 560 ;
561 [label="X[46] <= 0.5\ngini = 0.014\nsamples = 280\nvalue = [278, 2]"] ;
560 -> 561 ;
562 [label="X[225] <= 0.5\ngini = 0.007\nsamples = 274\nvalue = [273, 1]"] ;
561 -> 562 ;
563 [label="gini = 0.0\nsamples = 220\nvalue = [220, 0]"] ;
562 -> 563 ;
564 [label="X[209] <= 0.5\ngini = 0.036\nsamples = 54\nvalue = [53, 1]"] ;
562 -> 564 ;
565 [label="gini = 0.0\nsamples = 48\nvalue = [48, 0]"] ;
564 -> 565 ;
566 [label="X[58] <= 0.5\ngini = 0.278\nsamples = 6\nvalue = [5, 1]"] ;
564 -> 566 ;
567 [label="gini = 0.0\nsamples = 5\nvalue = [5, 0]"] ;
566 -> 567 ;
568 [label="gini = 0.0\nsamples = 1\nvalue = [0, 1]"] ;
566 -> 568 ;
569 [label="X[211] <= 0.5\ngini = 0.278\nsamples = 6\nvalue = [5, 1]"] ;
561 -> 569 ;
570 [label="gini = 0.0\nsamples = 5\nvalue = [5, 0]"] ;
569 -> 570 ;
571 [label="gini = 0.0\nsamples = 1\nvalue = [0, 1]"] ;
569 -> 571 ;
572 [label="X[163] <= 0.5\ngini = 0.375\nsamples = 4\nvalue = [3, 1]"] ;
560 -> 572 ;
573 [label="gini = 0.0\nsamples = 1\nvalue = [0, 1]"] ;
572 -> 573 ;
574 [label="gini = 0.0\nsamples = 3\nvalue = [3, 0]"] ;
572 -> 574 ;
575 [label="X[146] <= 0.5\ngini = 0.204\nsamples = 26\nvalue = [23, 3]"] ;
559 -> 575 ;
576 [label="X[133] <= 0.5\ngini = 0.147\nsamples = 25\nvalue = [23, 2]"] ;
575 -> 576 ;
577 [label="X[58] <= 0.5\ngini = 0.083\nsamples = 23\nvalue = [22, 1]"] ;
576 -> 577 ;
578 [label="gini = 0.0\nsamples = 18\nvalue = [18, 0]"] ;
577 -> 578 ;
579 [label="X[236] <= 0.5\ngini = 0.32\nsamples = 5\nvalue = [4, 1]"] ;
577 -> 579 ;
580 [label="X[143] <= 0.5\ngini = 0.5\nsamples = 2\nvalue = [1, 1]"] ;
579 -> 580 ;
581 [label="gini = 0.0\nsamples = 1\nvalue = [0, 1]"] ;
580 -> 581 ;
582 [label="gini = 0.0\nsamples = 1\nvalue = [1, 0]"] ;
580 -> 582 ;
583 [label="gini = 0.0\nsamples = 3\nvalue = [3, 0]"] ;
579 -> 583 ;
584 [label="X[10] <= 0.5\ngini = 0.5\nsamples = 2\nvalue = [1, 1]"] ;
576 -> 584 ;
585 [label="gini = 0.0\nsamples = 1\nvalue = [1, 0]"] ;
584 -> 585 ;
586 [label="gini = 0.0\nsamples = 1\nvalue = [0, 1]"] ;
584 -> 586 ;
587 [label="gini = 0.0\nsamples = 1\nvalue = [0, 1]"] ;
575 -> 587 ;
588 [label="X[151] <= 0.5\ngini = 0.26\nsamples = 13\nvalue = [11, 2]"] ;
558 -> 588 ;
589 [label="gini = 0.0\nsamples = 11\nvalue = [11, 0]"] ;
588 -> 589 ;
590 [label="gini = 0.0\nsamples = 2\nvalue = [0, 2]"] ;
588 -> 590 ;
591 [label="X[211] <= 0.5\ngini = 0.444\nsamples = 3\nvalue = [2, 1]"] ;
557 -> 591 ;
592 [label="gini = 0.0\nsamples = 2\nvalue = [2, 0]"] ;
591 -> 592 ;
593 [label="gini = 0.0\nsamples = 1\nvalue = [0, 1]"] ;
591 -> 593 ;
594 [label="X[56] <= 0.5\ngini = 0.298\nsamples = 22\nvalue = [18, 4]"] ;
556 -> 594 ;
595 [label="gini = 0.0\nsamples = 16\nvalue = [16, 0]"] ;
594 -> 595 ;
596 [label="X[130] <= 0.5\ngini = 0.444\nsamples = 6\nvalue = [2, 4]"] ;
594 -> 596 ;
597 [label="X[129] <= 0.5\ngini = 0.444\nsamples = 3\nvalue = [2, 1]"] ;
596 -> 597 ;
598 [label="gini = 0.0\nsamples = 2\nvalue = [2, 0]"] ;
597 -> 598 ;
599 [label="gini = 0.0\nsamples = 1\nvalue = [0, 1]"] ;
597 -> 599 ;
600 [label="gini = 0.0\nsamples = 3\nvalue = [0, 3]"] ;
596 -> 600 ;
601 [label="X[58] <= 0.5\ngini = 0.292\nsamples = 45\nvalue = [37, 8]"] ;
545 -> 601 ;
602 [label="X[193] <= 0.5\ngini = 0.21\nsamples = 42\nvalue = [37, 5]"] ;
601 -> 602 ;
603 [label="X[151] <= 0.5\ngini = 0.105\nsamples = 36\nvalue = [34, 2]"] ;
602 -> 603 ;
604 [label="X[203] <= 0.5\ngini = 0.056\nsamples = 35\nvalue = [34, 1]"] ;
603 -> 604 ;
605 [label="gini = 0.0\nsamples = 33\nvalue = [33, 0]"] ;
604 -> 605 ;
606 [label="X[15] <= 0.5\ngini = 0.5\nsamples = 2\nvalue = [1, 1]"] ;
604 -> 606 ;
607 [label="gini = 0.0\nsamples = 1\nvalue = [0, 1]"] ;
606 -> 607 ;
608 [label="gini = 0.0\nsamples = 1\nvalue = [1, 0]"] ;
606 -> 608 ;
609 [label="gini = 0.0\nsamples = 1\nvalue = [0, 1]"] ;
603 -> 609 ;
610 [label="X[246] <= 1969.0\ngini = 0.5\nsamples = 6\nvalue = [3, 3]"] ;
602 -> 610 ;
611 [label="gini = 0.0\nsamples = 2\nvalue = [0, 2]"] ;
610 -> 611 ;
612 [label="X[1] <= 0.5\ngini = 0.375\nsamples = 4\nvalue = [3, 1]"] ;
610 -> 612 ;
613 [label="gini = 0.0\nsamples = 1\nvalue = [0, 1]"] ;
612 -> 613 ;
614 [label="gini = 0.0\nsamples = 3\nvalue = [3, 0]"] ;
612 -> 614 ;
615 [label="gini = 0.0\nsamples = 3\nvalue = [0, 3]"] ;
601 -> 615 ;
616 [label="X[130] <= 0.5\ngini = 0.469\nsamples = 8\nvalue = [5, 3]"] ;
544 -> 616 ;
617 [label="gini = 0.0\nsamples = 5\nvalue = [5, 0]"] ;
616 -> 617 ;
618 [label="gini = 0.0\nsamples = 3\nvalue = [0, 3]"] ;
616 -> 618 ;
619 [label="gini = 0.0\nsamples = 1\nvalue = [0, 1]"] ;
543 -> 619 ;
620 [label="X[246] <= 1951.0\ngini = 0.348\nsamples = 107\nvalue = [83, 24]"] ;
542 -> 620 ;
621 [label="gini = 0.0\nsamples = 3\nvalue = [0, 3]"] ;
620 -> 621 ;
622 [label="X[206] <= 0.5\ngini = 0.322\nsamples = 104\nvalue = [83, 21]"] ;
620 -> 622 ;
623 [label="X[215] <= 0.5\ngini = 0.174\nsamples = 52\nvalue = [47, 5]"] ;
622 -> 623 ;
624 [label="X[169] <= 0.5\ngini = 0.115\nsamples = 49\nvalue = [46, 3]"] ;
623 -> 624 ;
625 [label="X[191] <= 0.5\ngini = 0.08\nsamples = 48\nvalue = [46, 2]"] ;
624 -> 625 ;
626 [label="X[23] <= 0.5\ngini = 0.043\nsamples = 46\nvalue = [45, 1]"] ;
625 -> 626 ;
627 [label="gini = 0.0\nsamples = 43\nvalue = [43, 0]"] ;
626 -> 627 ;
628 [label="X[149] <= 0.5\ngini = 0.444\nsamples = 3\nvalue = [2, 1]"] ;
626 -> 628 ;
629 [label="gini = 0.0\nsamples = 2\nvalue = [2, 0]"] ;
628 -> 629 ;
630 [label="gini = 0.0\nsamples = 1\nvalue = [0, 1]"] ;
628 -> 630 ;
631 [label="X[57] <= 0.5\ngini = 0.5\nsamples = 2\nvalue = [1, 1]"] ;
625 -> 631 ;
632 [label="gini = 0.0\nsamples = 1\nvalue = [1, 0]"] ;
631 -> 632 ;
633 [label="gini = 0.0\nsamples = 1\nvalue = [0, 1]"] ;
631 -> 633 ;
634 [label="gini = 0.0\nsamples = 1\nvalue = [0, 1]"] ;
624 -> 634 ;
635 [label="X[202] <= 0.5\ngini = 0.444\nsamples = 3\nvalue = [1, 2]"] ;
623 -> 635 ;
636 [label="gini = 0.0\nsamples = 2\nvalue = [0, 2]"] ;
635 -> 636 ;
637 [label="gini = 0.0\nsamples = 1\nvalue = [1, 0]"] ;
635 -> 637 ;
638 [label="X[148] <= 0.5\ngini = 0.426\nsamples = 52\nvalue = [36, 16]"] ;
622 -> 638 ;
639 [label="X[121] <= 0.5\ngini = 0.403\nsamples = 50\nvalue = [36, 14]"] ;
638 -> 639 ;
640 [label="X[246] <= 1979.5\ngini = 0.351\nsamples = 44\nvalue = [34, 10]"] ;
639 -> 640 ;
641 [label="X[213] <= 0.5\ngini = 0.492\nsamples = 16\nvalue = [9, 7]"] ;
640 -> 641 ;
642 [label="X[246] <= 1971.5\ngini = 0.459\nsamples = 14\nvalue = [9, 5]"] ;
641 -> 642 ;
643 [label="X[246] <= 1965.5\ngini = 0.245\nsamples = 7\nvalue = [6, 1]"] ;
642 -> 643 ;
644 [label="X[58] <= 0.5\ngini = 0.444\nsamples = 3\nvalue = [2, 1]"] ;
643 -> 644 ;
645 [label="gini = 0.0\nsamples = 1\nvalue = [0, 1]"] ;
644 -> 645 ;
646 [label="gini = 0.0\nsamples = 2\nvalue = [2, 0]"] ;
644 -> 646 ;
647 [label="gini = 0.0\nsamples = 4\nvalue = [4, 0]"] ;
643 -> 647 ;
648 [label="X[133] <= 0.5\ngini = 0.49\nsamples = 7\nvalue = [3, 4]"] ;
642 -> 648 ;
649 [label="X[193] <= 0.5\ngini = 0.32\nsamples = 5\nvalue = [1, 4]"] ;
648 -> 649 ;
650 [label="gini = 0.0\nsamples = 4\nvalue = [0, 4]"] ;
649 -> 650 ;
651 [label="gini = 0.0\nsamples = 1\nvalue = [1, 0]"] ;
649 -> 651 ;
652 [label="gini = 0.0\nsamples = 2\nvalue = [2, 0]"] ;
648 -> 652 ;
653 [label="gini = 0.0\nsamples = 2\nvalue = [0, 2]"] ;
641 -> 653 ;
654 [label="X[149] <= 0.5\ngini = 0.191\nsamples = 28\nvalue = [25, 3]"] ;
640 -> 654 ;
655 [label="X[130] <= 0.5\ngini = 0.137\nsamples = 27\nvalue = [25, 2]"] ;
654 -> 655 ;
656 [label="gini = 0.0\nsamples = 20\nvalue = [20, 0]"] ;
655 -> 656 ;
657 [label="X[176] <= 0.5\ngini = 0.408\nsamples = 7\nvalue = [5, 2]"] ;
655 -> 657 ;
658 [label="gini = 0.0\nsamples = 1\nvalue = [0, 1]"] ;
657 -> 658 ;
659 [label="X[157] <= 0.5\ngini = 0.278\nsamples = 6\nvalue = [5, 1]"] ;
657 -> 659 ;
660 [label="gini = 0.0\nsamples = 4\nvalue = [4, 0]"] ;
659 -> 660 ;
661 [label="X[136] <= 0.5\ngini = 0.5\nsamples = 2\nvalue = [1, 1]"] ;
659 -> 661 ;
662 [label="gini = 0.0\nsamples = 1\nvalue = [0, 1]"] ;
661 -> 662 ;
663 [label="gini = 0.0\nsamples = 1\nvalue = [1, 0]"] ;
661 -> 663 ;
664 [label="gini = 0.0\nsamples = 1\nvalue = [0, 1]"] ;
654 -> 664 ;
665 [label="X[208] <= 0.5\ngini = 0.444\nsamples = 6\nvalue = [2, 4]"] ;
639 -> 665 ;
666 [label="gini = 0.0\nsamples = 3\nvalue = [0, 3]"] ;
665 -> 666 ;
667 [label="X[180] <= 0.5\ngini = 0.444\nsamples = 3\nvalue = [2, 1]"] ;
665 -> 667 ;
668 [label="gini = 0.0\nsamples = 1\nvalue = [0, 1]"] ;
667 -> 668 ;
669 [label="gini = 0.0\nsamples = 2\nvalue = [2, 0]"] ;
667 -> 669 ;
670 [label="gini = 0.0\nsamples = 2\nvalue = [0, 2]"] ;
638 -> 670 ;
671 [label="X[234] <= 0.5\ngini = 0.054\nsamples = 4277\nvalue = [4159, 118]"] ;
541 -> 671 ;
672 [label="X[246] <= 1952.5\ngini = 0.052\nsamples = 4270\nvalue = [4156, 114]"] ;
671 -> 672 ;
673 [label="X[178] <= 0.5\ngini = 0.14\nsamples = 474\nvalue = [438, 36]"] ;
672 -> 673 ;
674 [label="X[105] <= 0.5\ngini = 0.128\nsamples = 465\nvalue = [433, 32]"] ;
673 -> 674 ;
675 [label="X[179] <= 0.5\ngini = 0.125\nsamples = 464\nvalue = [433, 31]"] ;
674 -> 675 ;
676 [label="X[29] <= 0.5\ngini = 0.121\nsamples = 463\nvalue = [433, 30]"] ;
675 -> 676 ;
677 [label="X[137] <= 0.5\ngini = 0.118\nsamples = 462\nvalue = [433, 29]"] ;
676 -> 677 ;
678 [label="X[51] <= 0.5\ngini = 0.114\nsamples = 461\nvalue = [433, 28]"] ;
677 -> 678 ;
679 [label="X[143] <= 0.5\ngini = 0.105\nsamples = 451\nvalue = [426, 25]"] ;
678 -> 679 ;
680 [label="X[23] <= 0.5\ngini = 0.076\nsamples = 353\nvalue = [339, 14]"] ;
679 -> 680 ;
681 [label="X[50] <= 0.5\ngini = 0.058\nsamples = 333\nvalue = [323, 10]"] ;
680 -> 681 ;
682 [label="X[208] <= 0.5\ngini = 0.053\nsamples = 331\nvalue = [322, 9]"] ;
681 -> 682 ;
683 [label="X[37] <= 0.5\ngini = 0.048\nsamples = 328\nvalue = [320, 8]"] ;
682 -> 683 ;
684 [label="X[24] <= 0.5\ngini = 0.027\nsamples = 288\nvalue = [284, 4]"] ;
683 -> 684 ;
685 [label="X[199] <= 0.5\ngini = 0.021\nsamples = 284\nvalue = [281, 3]"] ;
684 -> 685 ;
686 [label="X[194] <= 0.5\ngini = 0.014\nsamples = 279\nvalue = [277, 2]"] ;
685 -> 686 ;
687 [label="X[60] <= 0.5\ngini = 0.007\nsamples = 271\nvalue = [270, 1]"] ;
686 -> 687 ;
688 [label="gini = 0.0\nsamples = 254\nvalue = [254, 0]"] ;
687 -> 688 ;
689 [label="X[246] <= 1951.5\ngini = 0.111\nsamples = 17\nvalue = [16, 1]"] ;
687 -> 689 ;
690 [label="gini = 0.0\nsamples = 16\nvalue = [16, 0]"] ;
689 -> 690 ;
691 [label="gini = 0.0\nsamples = 1\nvalue = [0, 1]"] ;
689 -> 691 ;
692 [label="X[209] <= 0.5\ngini = 0.219\nsamples = 8\nvalue = [7, 1]"] ;
686 -> 692 ;
693 [label="gini = 0.0\nsamples = 6\nvalue = [6, 0]"] ;
692 -> 693 ;
694 [label="X[15] <= 0.5\ngini = 0.5\nsamples = 2\nvalue = [1, 1]"] ;
692 -> 694 ;
695 [label="gini = 0.0\nsamples = 1\nvalue = [0, 1]"] ;
694 -> 695 ;
696 [label="gini = 0.0\nsamples = 1\nvalue = [1, 0]"] ;
694 -> 696 ;
697 [label="X[151] <= 0.5\ngini = 0.32\nsamples = 5\nvalue = [4, 1]"] ;
685 -> 697 ;
698 [label="gini = 0.0\nsamples = 4\nvalue = [4, 0]"] ;
697 -> 698 ;
699 [label="gini = 0.0\nsamples = 1\nvalue = [0, 1]"] ;
697 -> 699 ;
700 [label="X[134] <= 0.5\ngini = 0.375\nsamples = 4\nvalue = [3, 1]"] ;
684 -> 700 ;
701 [label="gini = 0.0\nsamples = 3\nvalue = [3, 0]"] ;
700 -> 701 ;
702 [label="gini = 0.0\nsamples = 1\nvalue = [0, 1]"] ;
700 -> 702 ;
703 [label="X[71] <= 0.5\ngini = 0.18\nsamples = 40\nvalue = [36, 4]"] ;
683 -> 703 ;
704 [label="X[193] <= 0.5\ngini = 0.142\nsamples = 39\nvalue = [36, 3]"] ;
703 -> 704 ;
705 [label="X[163] <= 0.5\ngini = 0.1\nsamples = 38\nvalue = [36, 2]"] ;
704 -> 705 ;
706 [label="X[58] <= 0.5\ngini = 0.053\nsamples = 37\nvalue = [36, 1]"] ;
705 -> 706 ;
707 [label="gini = 0.0\nsamples = 31\nvalue = [31, 0]"] ;
706 -> 707 ;
708 [label="X[209] <= 0.5\ngini = 0.278\nsamples = 6\nvalue = [5, 1]"] ;
706 -> 708 ;
709 [label="gini = 0.0\nsamples = 4\nvalue = [4, 0]"] ;
708 -> 709 ;
710 [label="X[14] <= 0.5\ngini = 0.5\nsamples = 2\nvalue = [1, 1]"] ;
708 -> 710 ;
711 [label="gini = 0.0\nsamples = 1\nvalue = [0, 1]"] ;
710 -> 711 ;
712 [label="gini = 0.0\nsamples = 1\nvalue = [1, 0]"] ;
710 -> 712 ;
713 [label="gini = 0.0\nsamples = 1\nvalue = [0, 1]"] ;
705 -> 713 ;
714 [label="gini = 0.0\nsamples = 1\nvalue = [0, 1]"] ;
704 -> 714 ;
715 [label="gini = 0.0\nsamples = 1\nvalue = [0, 1]"] ;
703 -> 715 ;
716 [label="X[142] <= 0.5\ngini = 0.444\nsamples = 3\nvalue = [2, 1]"] ;
682 -> 716 ;
717 [label="gini = 0.0\nsamples = 1\nvalue = [1, 0]"] ;
716 -> 717 ;
718 [label="X[11] <= 0.5\ngini = 0.5\nsamples = 2\nvalue = [1, 1]"] ;
716 -> 718 ;
719 [label="gini = 0.0\nsamples = 1\nvalue = [0, 1]"] ;
718 -> 719 ;
720 [label="gini = 0.0\nsamples = 1\nvalue = [1, 0]"] ;
718 -> 720 ;
721 [label="X[152] <= 0.5\ngini = 0.5\nsamples = 2\nvalue = [1, 1]"] ;
681 -> 721 ;
722 [label="gini = 0.0\nsamples = 1\nvalue = [1, 0]"] ;
721 -> 722 ;
723 [label="gini = 0.0\nsamples = 1\nvalue = [0, 1]"] ;
721 -> 723 ;
724 [label="X[210] <= 0.5\ngini = 0.32\nsamples = 20\nvalue = [16, 4]"] ;
680 -> 724 ;
725 [label="X[145] <= 0.5\ngini = 0.198\nsamples = 18\nvalue = [16, 2]"] ;
724 -> 725 ;
726 [label="X[175] <= 0.5\ngini = 0.111\nsamples = 17\nvalue = [16, 1]"] ;
725 -> 726 ;
727 [label="gini = 0.0\nsamples = 16\nvalue = [16, 0]"] ;
726 -> 727 ;
728 [label="gini = 0.0\nsamples = 1\nvalue = [0, 1]"] ;
726 -> 728 ;
729 [label="gini = 0.0\nsamples = 1\nvalue = [0, 1]"] ;
725 -> 729 ;
730 [label="gini = 0.0\nsamples = 2\nvalue = [0, 2]"] ;
724 -> 730 ;
731 [label="X[159] <= 0.5\ngini = 0.199\nsamples = 98\nvalue = [87, 11]"] ;
679 -> 731 ;
732 [label="X[177] <= 0.5\ngini = 0.172\nsamples = 95\nvalue = [86, 9]"] ;
731 -> 732 ;
733 [label="X[34] <= 0.5\ngini = 0.142\nsamples = 91\nvalue = [84, 7]"] ;
732 -> 733 ;
734 [label="X[46] <= 0.5\ngini = 0.108\nsamples = 87\nvalue = [82, 5]"] ;
733 -> 734 ;
735 [label="X[162] <= 0.5\ngini = 0.07\nsamples = 82\nvalue = [79, 3]"] ;
734 -> 735 ;
736 [label="X[199] <= 0.5\ngini = 0.049\nsamples = 80\nvalue = [78, 2]"] ;
735 -> 736 ;
737 [label="X[191] <= 0.5\ngini = 0.026\nsamples = 76\nvalue = [75, 1]"] ;
736 -> 737 ;
738 [label="gini = 0.0\nsamples = 73\nvalue = [73, 0]"] ;
737 -> 738 ;
739 [label="X[57] <= 0.5\ngini = 0.444\nsamples = 3\nvalue = [2, 1]"] ;
737 -> 739 ;
740 [label="gini = 0.0\nsamples = 2\nvalue = [2, 0]"] ;
739 -> 740 ;
741 [label="gini = 0.0\nsamples = 1\nvalue = [0, 1]"] ;
739 -> 741 ;
742 [label="X[36] <= 0.5\ngini = 0.375\nsamples = 4\nvalue = [3, 1]"] ;
736 -> 742 ;
743 [label="gini = 0.0\nsamples = 3\nvalue = [3, 0]"] ;
742 -> 743 ;
744 [label="gini = 0.0\nsamples = 1\nvalue = [0, 1]"] ;
742 -> 744 ;
745 [label="X[12] <= 0.5\ngini = 0.5\nsamples = 2\nvalue = [1, 1]"] ;
735 -> 745 ;
746 [label="gini = 0.0\nsamples = 1\nvalue = [1, 0]"] ;
745 -> 746 ;
747 [label="gini = 0.0\nsamples = 1\nvalue = [0, 1]"] ;
745 -> 747 ;
748 [label="X[58] <= 0.5\ngini = 0.48\nsamples = 5\nvalue = [3, 2]"] ;
734 -> 748 ;
749 [label="gini = 0.0\nsamples = 3\nvalue = [3, 0]"] ;
748 -> 749 ;
750 [label="gini = 0.0\nsamples = 2\nvalue = [0, 2]"] ;
748 -> 750 ;
751 [label="X[246] <= 1944.5\ngini = 0.5\nsamples = 4\nvalue = [2, 2]"] ;
733 -> 751 ;
752 [label="gini = 0.0\nsamples = 2\nvalue = [0, 2]"] ;
751 -> 752 ;
753 [label="gini = 0.0\nsamples = 2\nvalue = [2, 0]"] ;
751 -> 753 ;
754 [label="X[209] <= 0.5\ngini = 0.5\nsamples = 4\nvalue = [2, 2]"] ;
732 -> 754 ;
755 [label="gini = 0.0\nsamples = 2\nvalue = [2, 0]"] ;
754 -> 755 ;
756 [label="gini = 0.0\nsamples = 2\nvalue = [0, 2]"] ;
754 -> 756 ;
757 [label="X[212] <= 0.5\ngini = 0.444\nsamples = 3\nvalue = [1, 2]"] ;
731 -> 757 ;
758 [label="gini = 0.0\nsamples = 2\nvalue = [0, 2]"] ;
757 -> 758 ;
759 [label="gini = 0.0\nsamples = 1\nvalue = [1, 0]"] ;
757 -> 759 ;
760 [label="X[246] <= 1949.5\ngini = 0.42\nsamples = 10\nvalue = [7, 3]"] ;
678 -> 760 ;
761 [label="X[81] <= 0.5\ngini = 0.5\nsamples = 6\nvalue = [3, 3]"] ;
760 -> 761 ;
762 [label="gini = 0.0\nsamples = 2\nvalue = [2, 0]"] ;
761 -> 762 ;
763 [label="X[191] <= 0.5\ngini = 0.375\nsamples = 4\nvalue = [1, 3]"] ;
761 -> 763 ;
764 [label="gini = 0.0\nsamples = 3\nvalue = [0, 3]"] ;
763 -> 764 ;
765 [label="gini = 0.0\nsamples = 1\nvalue = [1, 0]"] ;
763 -> 765 ;
766 [label="gini = 0.0\nsamples = 4\nvalue = [4, 0]"] ;
760 -> 766 ;
767 [label="gini = 0.0\nsamples = 1\nvalue = [0, 1]"] ;
677 -> 767 ;
768 [label="gini = 0.0\nsamples = 1\nvalue = [0, 1]"] ;
676 -> 768 ;
769 [label="gini = 0.0\nsamples = 1\nvalue = [0, 1]"] ;
675 -> 769 ;
770 [label="gini = 0.0\nsamples = 1\nvalue = [0, 1]"] ;
674 -> 770 ;
771 [label="X[58] <= 0.5\ngini = 0.494\nsamples = 9\nvalue = [5, 4]"] ;
673 -> 771 ;
772 [label="gini = 0.0\nsamples = 5\nvalue = [5, 0]"] ;
771 -> 772 ;
773 [label="gini = 0.0\nsamples = 4\nvalue = [0, 4]"] ;
771 -> 773 ;
774 [label="X[154] <= 0.5\ngini = 0.04\nsamples = 3796\nvalue = [3718, 78]"] ;
672 -> 774 ;
775 [label="X[245] <= 0.5\ngini = 0.039\nsamples = 3783\nvalue = [3708, 75]"] ;
774 -> 775 ;
776 [label="X[223] <= 0.5\ngini = 0.035\nsamples = 3674\nvalue = [3609, 65]"] ;
775 -> 776 ;
777 [label="X[222] <= 0.5\ngini = 0.033\nsamples = 3659\nvalue = [3597, 62]"] ;
776 -> 777 ;
778 [label="X[45] <= 0.5\ngini = 0.032\nsamples = 3651\nvalue = [3591, 60]"] ;
777 -> 778 ;
779 [label="X[73] <= 0.5\ngini = 0.03\nsamples = 3589\nvalue = [3534, 55]"] ;
778 -> 779 ;
780 [label="X[43] <= 0.5\ngini = 0.022\nsamples = 2905\nvalue = [2872, 33]"] ;
779 -> 780 ;
781 [label="X[59] <= 0.5\ngini = 0.022\nsamples = 2901\nvalue = [2869, 32]"] ;
780 -> 781 ;
782 [label="X[51] <= 0.5\ngini = 0.017\nsamples = 2623\nvalue = [2601, 22]"] ;
781 -> 782 ;
783 [label="X[194] <= 0.5\ngini = 0.015\nsamples = 2585\nvalue = [2566, 19]"] ;
782 -> 783 ;
784 [label="X[48] <= 0.5\ngini = 0.013\nsamples = 2536\nvalue = [2520, 16]"] ;
783 -> 784 ;
785 [label="X[180] <= 0.5\ngini = 0.012\nsamples = 2524\nvalue = [2509, 15]"] ;
784 -> 785 ;
786 [label="X[144] <= 0.5\ngini = 0.008\nsamples = 2008\nvalue = [2000, 8]"] ;
785 -> 786 ;
787 [label="X[23] <= 0.5\ngini = 0.005\nsamples = 1761\nvalue = [1757, 4]"] ;
786 -> 787 ;
788 [label="X[207] <= 0.5\ngini = 0.003\nsamples = 1731\nvalue = [1728, 3]"] ;
787 -> 788 ;
789 [label="X[39] <= 0.5\ngini = 0.002\nsamples = 1633\nvalue = [1631, 2]"] ;
788 -> 789 ;
790 [label="X[201] <= 0.5\ngini = 0.001\nsamples = 1523\nvalue = [1522, 1]"] ;
789 -> 790 ;
791 [label="gini = 0.0\nsamples = 1305\nvalue = [1305, 0]"] ;
790 -> 791 ;
792 [label="X[66] <= 0.5\ngini = 0.009\nsamples = 218\nvalue = [217, 1]"] ;
790 -> 792 ;
793 [label="gini = 0.0\nsamples = 180\nvalue = [180, 0]"] ;
792 -> 793 ;
794 [label="X[209] <= 0.5\ngini = 0.051\nsamples = 38\nvalue = [37, 1]"] ;
792 -> 794 ;
795 [label="gini = 0.0\nsamples = 30\nvalue = [30, 0]"] ;
794 -> 795 ;
796 [label="X[57] <= 0.5\ngini = 0.219\nsamples = 8\nvalue = [7, 1]"] ;
794 -> 796 ;
797 [label="gini = 0.0\nsamples = 4\nvalue = [4, 0]"] ;
796 -> 797 ;
798 [label="X[246] <= 1996.5\ngini = 0.375\nsamples = 4\nvalue = [3, 1]"] ;
796 -> 798 ;
799 [label="gini = 0.0\nsamples = 1\nvalue = [0, 1]"] ;
798 -> 799 ;
800 [label="gini = 0.0\nsamples = 3\nvalue = [3, 0]"] ;
798 -> 800 ;
801 [label="X[143] <= 0.5\ngini = 0.018\nsamples = 110\nvalue = [109, 1]"] ;
789 -> 801 ;
802 [label="gini = 0.0\nsamples = 72\nvalue = [72, 0]"] ;
801 -> 802 ;
803 [label="X[209] <= 0.5\ngini = 0.051\nsamples = 38\nvalue = [37, 1]"] ;
801 -> 803 ;
804 [label="gini = 0.0\nsamples = 23\nvalue = [23, 0]"] ;
803 -> 804 ;
805 [label="X[192] <= 0.5\ngini = 0.124\nsamples = 15\nvalue = [14, 1]"] ;
803 -> 805 ;
806 [label="gini = 0.0\nsamples = 9\nvalue = [9, 0]"] ;
805 -> 806 ;
807 [label="X[58] <= 0.5\ngini = 0.278\nsamples = 6\nvalue = [5, 1]"] ;
805 -> 807 ;
808 [label="X[53] <= 0.5\ngini = 0.444\nsamples = 3\nvalue = [2, 1]"] ;
807 -> 808 ;
809 [label="gini = 0.0\nsamples = 2\nvalue = [2, 0]"] ;
808 -> 809 ;
810 [label="gini = 0.0\nsamples = 1\nvalue = [0, 1]"] ;
808 -> 810 ;
811 [label="gini = 0.0\nsamples = 3\nvalue = [3, 0]"] ;
807 -> 811 ;
812 [label="X[188] <= 0.5\ngini = 0.02\nsamples = 98\nvalue = [97, 1]"] ;
788 -> 812 ;
813 [label="gini = 0.0\nsamples = 92\nvalue = [92, 0]"] ;
812 -> 813 ;
814 [label="X[211] <= 0.5\ngini = 0.278\nsamples = 6\nvalue = [5, 1]"] ;
812 -> 814 ;
815 [label="gini = 0.0\nsamples = 4\nvalue = [4, 0]"] ;
814 -> 815 ;
816 [label="X[246] <= 1976.5\ngini = 0.5\nsamples = 2\nvalue = [1, 1]"] ;
814 -> 816 ;
817 [label="gini = 0.0\nsamples = 1\nvalue = [0, 1]"] ;
816 -> 817 ;
818 [label="gini = 0.0\nsamples = 1\nvalue = [1, 0]"] ;
816 -> 818 ;
819 [label="X[175] <= 0.5\ngini = 0.064\nsamples = 30\nvalue = [29, 1]"] ;
787 -> 819 ;
820 [label="gini = 0.0\nsamples = 29\nvalue = [29, 0]"] ;
819 -> 820 ;
821 [label="gini = 0.0\nsamples = 1\nvalue = [0, 1]"] ;
819 -> 821 ;
822 [label="X[171] <= 0.5\ngini = 0.032\nsamples = 247\nvalue = [243, 4]"] ;
786 -> 822 ;
823 [label="X[151] <= 0.5\ngini = 0.024\nsamples = 246\nvalue = [243, 3]"] ;
822 -> 823 ;
824 [label="X[37] <= 0.5\ngini = 0.009\nsamples = 231\nvalue = [230, 1]"] ;
823 -> 824 ;
825 [label="gini = 0.0\nsamples = 207\nvalue = [207, 0]"] ;
824 -> 825 ;
826 [label="X[246] <= 1983.0\ngini = 0.08\nsamples = 24\nvalue = [23, 1]"] ;
824 -> 826 ;
827 [label="X[246] <= 1977.5\ngini = 0.198\nsamples = 9\nvalue = [8, 1]"] ;
826 -> 827 ;
828 [label="gini = 0.0\nsamples = 8\nvalue = [8, 0]"] ;
827 -> 828 ;
829 [label="gini = 0.0\nsamples = 1\nvalue = [0, 1]"] ;
827 -> 829 ;
830 [label="gini = 0.0\nsamples = 15\nvalue = [15, 0]"] ;
826 -> 830 ;
831 [label="X[246] <= 1958.0\ngini = 0.231\nsamples = 15\nvalue = [13, 2]"] ;
823 -> 831 ;
832 [label="gini = 0.0\nsamples = 1\nvalue = [0, 1]"] ;
831 -> 832 ;
833 [label="X[58] <= 0.5\ngini = 0.133\nsamples = 14\nvalue = [13, 1]"] ;
831 -> 833 ;
834 [label="gini = 0.0\nsamples = 12\nvalue = [12, 0]"] ;
833 -> 834 ;
835 [label="X[206] <= 0.5\ngini = 0.5\nsamples = 2\nvalue = [1, 1]"] ;
833 -> 835 ;
836 [label="gini = 0.0\nsamples = 1\nvalue = [1, 0]"] ;
835 -> 836 ;
837 [label="gini = 0.0\nsamples = 1\nvalue = [0, 1]"] ;
835 -> 837 ;
838 [label="gini = 0.0\nsamples = 1\nvalue = [0, 1]"] ;
822 -> 838 ;
839 [label="X[74] <= 0.5\ngini = 0.027\nsamples = 516\nvalue = [509, 7]"] ;
785 -> 839 ;
840 [label="X[36] <= 0.5\ngini = 0.02\nsamples = 489\nvalue = [484, 5]"] ;
839 -> 840 ;
841 [label="X[184] <= 0.5\ngini = 0.017\nsamples = 477\nvalue = [473, 4]"] ;
840 -> 841 ;
842 [label="X[215] <= 0.5\ngini = 0.009\nsamples = 423\nvalue = [421, 2]"] ;
841 -> 842 ;
843 [label="X[213] <= 0.5\ngini = 0.005\nsamples = 399\nvalue = [398, 1]"] ;
842 -> 843 ;
844 [label="gini = 0.0\nsamples = 340\nvalue = [340, 0]"] ;
843 -> 844 ;
845 [label="X[246] <= 1999.5\ngini = 0.033\nsamples = 59\nvalue = [58, 1]"] ;
843 -> 845 ;
846 [label="gini = 0.0\nsamples = 48\nvalue = [48, 0]"] ;
845 -> 846 ;
847 [label="X[203] <= 0.5\ngini = 0.165\nsamples = 11\nvalue = [10, 1]"] ;
845 -> 847 ;
848 [label="gini = 0.0\nsamples = 8\nvalue = [8, 0]"] ;
847 -> 848 ;
849 [label="X[15] <= 0.5\ngini = 0.444\nsamples = 3\nvalue = [2, 1]"] ;
847 -> 849 ;
850 [label="gini = 0.0\nsamples = 1\nvalue = [0, 1]"] ;
849 -> 850 ;
851 [label="gini = 0.0\nsamples = 2\nvalue = [2, 0]"] ;
849 -> 851 ;
852 [label="X[163] <= 0.5\ngini = 0.08\nsamples = 24\nvalue = [23, 1]"] ;
842 -> 852 ;
853 [label="gini = 0.0\nsamples = 23\nvalue = [23, 0]"] ;
852 -> 853 ;
854 [label="gini = 0.0\nsamples = 1\nvalue = [0, 1]"] ;
852 -> 854 ;
855 [label="X[209] <= 0.5\ngini = 0.071\nsamples = 54\nvalue = [52, 2]"] ;
841 -> 855 ;
856 [label="X[246] <= 2000.5\ngini = 0.038\nsamples = 51\nvalue = [50, 1]"] ;
855 -> 856 ;
857 [label="gini = 0.0\nsamples = 47\nvalue = [47, 0]"] ;
856 -> 857 ;
858 [label="X[66] <= 0.5\ngini = 0.375\nsamples = 4\nvalue = [3, 1]"] ;
856 -> 858 ;
859 [label="gini = 0.0\nsamples = 3\nvalue = [3, 0]"] ;
858 -> 859 ;
860 [label="gini = 0.0\nsamples = 1\nvalue = [0, 1]"] ;
858 -> 860 ;
861 [label="X[135] <= 0.5\ngini = 0.444\nsamples = 3\nvalue = [2, 1]"] ;
855 -> 861 ;
862 [label="gini = 0.0\nsamples = 1\nvalue = [1, 0]"] ;
861 -> 862 ;
863 [label="X[38] <= 0.5\ngini = 0.5\nsamples = 2\nvalue = [1, 1]"] ;
861 -> 863 ;
864 [label="gini = 0.0\nsamples = 1\nvalue = [0, 1]"] ;
863 -> 864 ;
865 [label="gini = 0.0\nsamples = 1\nvalue = [1, 0]"] ;
863 -> 865 ;
866 [label="X[193] <= 0.5\ngini = 0.153\nsamples = 12\nvalue = [11, 1]"] ;
840 -> 866 ;
867 [label="gini = 0.0\nsamples = 9\nvalue = [9, 0]"] ;
866 -> 867 ;
868 [label="X[142] <= 0.5\ngini = 0.444\nsamples = 3\nvalue = [2, 1]"] ;
866 -> 868 ;
869 [label="gini = 0.0\nsamples = 1\nvalue = [0, 1]"] ;
868 -> 869 ;
870 [label="gini = 0.0\nsamples = 2\nvalue = [2, 0]"] ;
868 -> 870 ;
871 [label="X[188] <= 0.5\ngini = 0.137\nsamples = 27\nvalue = [25, 2]"] ;
839 -> 871 ;
872 [label="X[163] <= 0.5\ngini = 0.074\nsamples = 26\nvalue = [25, 1]"] ;
871 -> 872 ;
873 [label="gini = 0.0\nsamples = 24\nvalue = [24, 0]"] ;
872 -> 873 ;
874 [label="X[246] <= 1989.0\ngini = 0.5\nsamples = 2\nvalue = [1, 1]"] ;
872 -> 874 ;
875 [label="gini = 0.0\nsamples = 1\nvalue = [1, 0]"] ;
874 -> 875 ;
876 [label="gini = 0.0\nsamples = 1\nvalue = [0, 1]"] ;
874 -> 876 ;
877 [label="gini = 0.0\nsamples = 1\nvalue = [0, 1]"] ;
871 -> 877 ;
878 [label="X[199] <= 0.5\ngini = 0.153\nsamples = 12\nvalue = [11, 1]"] ;
784 -> 878 ;
879 [label="gini = 0.0\nsamples = 11\nvalue = [11, 0]"] ;
878 -> 879 ;
880 [label="gini = 0.0\nsamples = 1\nvalue = [0, 1]"] ;
878 -> 880 ;
881 [label="X[211] <= 0.5\ngini = 0.115\nsamples = 49\nvalue = [46, 3]"] ;
783 -> 881 ;
882 [label="gini = 0.0\nsamples = 41\nvalue = [41, 0]"] ;
881 -> 882 ;
883 [label="X[56] <= 0.5\ngini = 0.469\nsamples = 8\nvalue = [5, 3]"] ;
881 -> 883 ;
884 [label="X[66] <= 0.5\ngini = 0.278\nsamples = 6\nvalue = [5, 1]"] ;
883 -> 884 ;
885 [label="gini = 0.0\nsamples = 5\nvalue = [5, 0]"] ;
884 -> 885 ;
886 [label="gini = 0.0\nsamples = 1\nvalue = [0, 1]"] ;
884 -> 886 ;
887 [label="gini = 0.0\nsamples = 2\nvalue = [0, 2]"] ;
883 -> 887 ;
888 [label="X[185] <= 0.5\ngini = 0.145\nsamples = 38\nvalue = [35, 3]"] ;
782 -> 888 ;
889 [label="X[177] <= 0.5\ngini = 0.102\nsamples = 37\nvalue = [35, 2]"] ;
888 -> 889 ;
890 [label="X[208] <= 0.5\ngini = 0.056\nsamples = 35\nvalue = [34, 1]"] ;
889 -> 890 ;
891 [label="gini = 0.0\nsamples = 31\nvalue = [31, 0]"] ;
890 -> 891 ;
892 [label="X[56] <= 0.5\ngini = 0.375\nsamples = 4\nvalue = [3, 1]"] ;
890 -> 892 ;
893 [label="gini = 0.0\nsamples = 3\nvalue = [3, 0]"] ;
892 -> 893 ;
894 [label="gini = 0.0\nsamples = 1\nvalue = [0, 1]"] ;
892 -> 894 ;
895 [label="X[148] <= 0.5\ngini = 0.5\nsamples = 2\nvalue = [1, 1]"] ;
889 -> 895 ;
896 [label="gini = 0.0\nsamples = 1\nvalue = [1, 0]"] ;
895 -> 896 ;
897 [label="gini = 0.0\nsamples = 1\nvalue = [0, 1]"] ;
895 -> 897 ;
898 [label="gini = 0.0\nsamples = 1\nvalue = [0, 1]"] ;
888 -> 898 ;
899 [label="X[204] <= 0.5\ngini = 0.069\nsamples = 278\nvalue = [268, 10]"] ;
781 -> 899 ;
900 [label="X[146] <= 0.5\ngini = 0.063\nsamples = 277\nvalue = [268, 9]"] ;
899 -> 900 ;
901 [label="X[226] <= 0.5\ngini = 0.057\nsamples = 274\nvalue = [266, 8]"] ;
900 -> 901 ;
902 [label="X[246] <= 2005.5\ngini = 0.05\nsamples = 271\nvalue = [264, 7]"] ;
901 -> 902 ;
903 [label="X[29] <= 0.5\ngini = 0.038\nsamples = 255\nvalue = [250, 5]"] ;
902 -> 903 ;
904 [label="X[134] <= 0.5\ngini = 0.032\nsamples = 248\nvalue = [244, 4]"] ;
903 -> 904 ;
905 [label="X[246] <= 1956.5\ngini = 0.01\nsamples = 196\nvalue = [195, 1]"] ;
904 -> 905 ;
906 [label="X[151] <= 0.5\ngini = 0.105\nsamples = 18\nvalue = [17, 1]"] ;
905 -> 906 ;
907 [label="gini = 0.0\nsamples = 14\nvalue = [14, 0]"] ;
906 -> 907 ;
908 [label="X[188] <= 0.5\ngini = 0.375\nsamples = 4\nvalue = [3, 1]"] ;
906 -> 908 ;
909 [label="gini = 0.0\nsamples = 3\nvalue = [3, 0]"] ;
908 -> 909 ;
910 [label="gini = 0.0\nsamples = 1\nvalue = [0, 1]"] ;
908 -> 910 ;
911 [label="gini = 0.0\nsamples = 178\nvalue = [178, 0]"] ;
905 -> 911 ;
912 [label="X[205] <= 0.5\ngini = 0.109\nsamples = 52\nvalue = [49, 3]"] ;
904 -> 912 ;
913 [label="X[211] <= 0.5\ngini = 0.077\nsamples = 50\nvalue = [48, 2]"] ;
912 -> 913 ;
914 [label="gini = 0.0\nsamples = 34\nvalue = [34, 0]"] ;
913 -> 914 ;
915 [label="X[57] <= 0.5\ngini = 0.219\nsamples = 16\nvalue = [14, 2]"] ;
913 -> 915 ;
916 [label="X[17] <= 0.5\ngini = 0.133\nsamples = 14\nvalue = [13, 1]"] ;
915 -> 916 ;
917 [label="gini = 0.0\nsamples = 11\nvalue = [11, 0]"] ;
916 -> 917 ;
918 [label="X[163] <= 0.5\ngini = 0.444\nsamples = 3\nvalue = [2, 1]"] ;
916 -> 918 ;
919 [label="gini = 0.0\nsamples = 2\nvalue = [2, 0]"] ;
918 -> 919 ;
920 [label="gini = 0.0\nsamples = 1\nvalue = [0, 1]"] ;
918 -> 920 ;
921 [label="X[243] <= 0.5\ngini = 0.5\nsamples = 2\nvalue = [1, 1]"] ;
915 -> 921 ;
922 [label="gini = 0.0\nsamples = 1\nvalue = [1, 0]"] ;
921 -> 922 ;
923 [label="gini = 0.0\nsamples = 1\nvalue = [0, 1]"] ;
921 -> 923 ;
924 [label="X[15] <= 0.5\ngini = 0.5\nsamples = 2\nvalue = [1, 1]"] ;
912 -> 924 ;
925 [label="gini = 0.0\nsamples = 1\nvalue = [1, 0]"] ;
924 -> 925 ;
926 [label="gini = 0.0\nsamples = 1\nvalue = [0, 1]"] ;
924 -> 926 ;
927 [label="X[143] <= 0.5\ngini = 0.245\nsamples = 7\nvalue = [6, 1]"] ;
903 -> 927 ;
928 [label="gini = 0.0\nsamples = 6\nvalue = [6, 0]"] ;
927 -> 928 ;
929 [label="gini = 0.0\nsamples = 1\nvalue = [0, 1]"] ;
927 -> 929 ;
930 [label="X[207] <= 0.5\ngini = 0.219\nsamples = 16\nvalue = [14, 2]"] ;
902 -> 930 ;
931 [label="X[58] <= 0.5\ngini = 0.124\nsamples = 15\nvalue = [14, 1]"] ;
930 -> 931 ;
932 [label="gini = 0.0\nsamples = 10\nvalue = [10, 0]"] ;
931 -> 932 ;
933 [label="X[201] <= 0.5\ngini = 0.32\nsamples = 5\nvalue = [4, 1]"] ;
931 -> 933 ;
934 [label="gini = 0.0\nsamples = 3\nvalue = [3, 0]"] ;
933 -> 934 ;
935 [label="X[246] <= 2007.5\ngini = 0.5\nsamples = 2\nvalue = [1, 1]"] ;
933 -> 935 ;
936 [label="gini = 0.0\nsamples = 1\nvalue = [1, 0]"] ;
935 -> 936 ;
937 [label="gini = 0.0\nsamples = 1\nvalue = [0, 1]"] ;
935 -> 937 ;
938 [label="gini = 0.0\nsamples = 1\nvalue = [0, 1]"] ;
930 -> 938 ;
939 [label="X[163] <= 0.5\ngini = 0.444\nsamples = 3\nvalue = [2, 1]"] ;
901 -> 939 ;
940 [label="gini = 0.0\nsamples = 2\nvalue = [2, 0]"] ;
939 -> 940 ;
941 [label="gini = 0.0\nsamples = 1\nvalue = [0, 1]"] ;
939 -> 941 ;
942 [label="X[56] <= 0.5\ngini = 0.444\nsamples = 3\nvalue = [2, 1]"] ;
900 -> 942 ;
943 [label="gini = 0.0\nsamples = 2\nvalue = [2, 0]"] ;
942 -> 943 ;
944 [label="gini = 0.0\nsamples = 1\nvalue = [0, 1]"] ;
942 -> 944 ;
945 [label="gini = 0.0\nsamples = 1\nvalue = [0, 1]"] ;
899 -> 945 ;
946 [label="X[192] <= 0.5\ngini = 0.375\nsamples = 4\nvalue = [3, 1]"] ;
780 -> 946 ;
947 [label="gini = 0.0\nsamples = 1\nvalue = [0, 1]"] ;
946 -> 947 ;
948 [label="gini = 0.0\nsamples = 3\nvalue = [3, 0]"] ;
946 -> 948 ;
949 [label="X[5] <= 0.5\ngini = 0.062\nsamples = 684\nvalue = [662, 22]"] ;
779 -> 949 ;
950 [label="X[33] <= 0.5\ngini = 0.06\nsamples = 683\nvalue = [662, 21]"] ;
949 -> 950 ;
951 [label="X[196] <= 0.5\ngini = 0.057\nsamples = 681\nvalue = [661, 20]"] ;
950 -> 951 ;
952 [label="X[246] <= 1984.5\ngini = 0.055\nsamples = 677\nvalue = [658, 19]"] ;
951 -> 952 ;
953 [label="X[213] <= 0.5\ngini = 0.033\nsamples = 411\nvalue = [404, 7]"] ;
952 -> 953 ;
954 [label="X[210] <= 0.5\ngini = 0.029\nsamples = 407\nvalue = [401, 6]"] ;
953 -> 954 ;
955 [label="X[144] <= 0.5\ngini = 0.017\nsamples = 357\nvalue = [354, 3]"] ;
954 -> 955 ;
956 [label="X[201] <= 0.5\ngini = 0.012\nsamples = 338\nvalue = [336, 2]"] ;
955 -> 956 ;
957 [label="X[212] <= 0.5\ngini = 0.007\nsamples = 285\nvalue = [284, 1]"] ;
956 -> 957 ;
958 [label="gini = 0.0\nsamples = 214\nvalue = [214, 0]"] ;
957 -> 958 ;
959 [label="X[246] <= 1975.5\ngini = 0.028\nsamples = 71\nvalue = [70, 1]"] ;
957 -> 959 ;
960 [label="gini = 0.0\nsamples = 49\nvalue = [49, 0]"] ;
959 -> 960 ;
961 [label="X[246] <= 1976.5\ngini = 0.087\nsamples = 22\nvalue = [21, 1]"] ;
959 -> 961 ;
962 [label="X[206] <= 0.5\ngini = 0.5\nsamples = 2\nvalue = [1, 1]"] ;
961 -> 962 ;
963 [label="gini = 0.0\nsamples = 1\nvalue = [0, 1]"] ;
962 -> 963 ;
964 [label="gini = 0.0\nsamples = 1\nvalue = [1, 0]"] ;
962 -> 964 ;
965 [label="gini = 0.0\nsamples = 20\nvalue = [20, 0]"] ;
961 -> 965 ;
966 [label="X[246] <= 1961.5\ngini = 0.037\nsamples = 53\nvalue = [52, 1]"] ;
956 -> 966 ;
967 [label="X[246] <= 1960.5\ngini = 0.133\nsamples = 14\nvalue = [13, 1]"] ;
966 -> 967 ;
968 [label="gini = 0.0\nsamples = 11\nvalue = [11, 0]"] ;
967 -> 968 ;
969 [label="X[175] <= 0.5\ngini = 0.444\nsamples = 3\nvalue = [2, 1]"] ;
967 -> 969 ;
970 [label="X[142] <= 0.5\ngini = 0.5\nsamples = 2\nvalue = [1, 1]"] ;
969 -> 970 ;
971 [label="gini = 0.0\nsamples = 1\nvalue = [1, 0]"] ;
970 -> 971 ;
972 [label="gini = 0.0\nsamples = 1\nvalue = [0, 1]"] ;
970 -> 972 ;
973 [label="gini = 0.0\nsamples = 1\nvalue = [1, 0]"] ;
969 -> 973 ;
974 [label="gini = 0.0\nsamples = 39\nvalue = [39, 0]"] ;
966 -> 974 ;
975 [label="X[151] <= 0.5\ngini = 0.1\nsamples = 19\nvalue = [18, 1]"] ;
955 -> 975 ;
976 [label="gini = 0.0\nsamples = 16\nvalue = [16, 0]"] ;
975 -> 976 ;
977 [label="X[211] <= 0.5\ngini = 0.444\nsamples = 3\nvalue = [2, 1]"] ;
975 -> 977 ;
978 [label="gini = 0.0\nsamples = 1\nvalue = [1, 0]"] ;
977 -> 978 ;
979 [label="X[236] <= 0.5\ngini = 0.5\nsamples = 2\nvalue = [1, 1]"] ;
977 -> 979 ;
980 [label="gini = 0.0\nsamples = 1\nvalue = [1, 0]"] ;
979 -> 980 ;
981 [label="gini = 0.0\nsamples = 1\nvalue = [0, 1]"] ;
979 -> 981 ;
982 [label="X[160] <= 0.5\ngini = 0.113\nsamples = 50\nvalue = [47, 3]"] ;
954 -> 982 ;
983 [label="X[207] <= 0.5\ngini = 0.08\nsamples = 48\nvalue = [46, 2]"] ;
982 -> 983 ;
984 [label="X[246] <= 1962.5\ngini = 0.043\nsamples = 45\nvalue = [44, 1]"] ;
983 -> 984 ;
985 [label="X[246] <= 1961.5\ngini = 0.111\nsamples = 17\nvalue = [16, 1]"] ;
984 -> 985 ;
986 [label="gini = 0.0\nsamples = 13\nvalue = [13, 0]"] ;
985 -> 986 ;
987 [label="X[57] <= 0.5\ngini = 0.375\nsamples = 4\nvalue = [3, 1]"] ;
985 -> 987 ;
988 [label="gini = 0.0\nsamples = 3\nvalue = [3, 0]"] ;
987 -> 988 ;
989 [label="gini = 0.0\nsamples = 1\nvalue = [0, 1]"] ;
987 -> 989 ;
990 [label="gini = 0.0\nsamples = 28\nvalue = [28, 0]"] ;
984 -> 990 ;
991 [label="X[246] <= 1977.0\ngini = 0.444\nsamples = 3\nvalue = [2, 1]"] ;
983 -> 991 ;
992 [label="gini = 0.0\nsamples = 2\nvalue = [2, 0]"] ;
991 -> 992 ;
993 [label="gini = 0.0\nsamples = 1\nvalue = [0, 1]"] ;
991 -> 993 ;
994 [label="X[183] <= 0.5\ngini = 0.5\nsamples = 2\nvalue = [1, 1]"] ;
982 -> 994 ;
995 [label="gini = 0.0\nsamples = 1\nvalue = [1, 0]"] ;
994 -> 995 ;
996 [label="gini = 0.0\nsamples = 1\nvalue = [0, 1]"] ;
994 -> 996 ;
997 [label="X[56] <= 0.5\ngini = 0.375\nsamples = 4\nvalue = [3, 1]"] ;
953 -> 997 ;
998 [label="gini = 0.0\nsamples = 3\nvalue = [3, 0]"] ;
997 -> 998 ;
999 [label="gini = 0.0\nsamples = 1\nvalue = [0, 1]"] ;
997 -> 999 ;
1000 [label="X[23] <= 0.5\ngini = 0.086\nsamples = 266\nvalue = [254, 12]"] ;
952 -> 1000 ;
1001 [label="X[198] <= 0.5\ngini = 0.08\nsamples = 264\nvalue = [253, 11]"] ;
1000 -> 1001 ;
1002 [label="X[184] <= 0.5\ngini = 0.068\nsamples = 254\nvalue = [245, 9]"] ;
1001 -> 1002 ;
1003 [label="X[194] <= 0.5\ngini = 0.05\nsamples = 235\nvalue = [229, 6]"] ;
1002 -> 1003 ;
1004 [label="X[151] <= 0.5\ngini = 0.042\nsamples = 232\nvalue = [227, 5]"] ;
1003 -> 1004 ;
1005 [label="X[210] <= 0.5\ngini = 0.028\nsamples = 209\nvalue = [206, 3]"] ;
1004 -> 1005 ;
1006 [label="X[246] <= 1987.5\ngini = 0.011\nsamples = 180\nvalue = [179, 1]"] ;
1005 -> 1006 ;
1007 [label="X[211] <= 0.5\ngini = 0.062\nsamples = 31\nvalue = [30, 1]"] ;
1006 -> 1007 ;
1008 [label="gini = 0.0\nsamples = 21\nvalue = [21, 0]"] ;
1007 -> 1008 ;
1009 [label="X[246] <= 1986.5\ngini = 0.18\nsamples = 10\nvalue = [9, 1]"] ;
1007 -> 1009 ;
1010 [label="gini = 0.0\nsamples = 6\nvalue = [6, 0]"] ;
1009 -> 1010 ;
1011 [label="X[57] <= 0.5\ngini = 0.375\nsamples = 4\nvalue = [3, 1]"] ;
1009 -> 1011 ;
1012 [label="gini = 0.0\nsamples = 3\nvalue = [3, 0]"] ;
1011 -> 1012 ;
1013 [label="gini = 0.0\nsamples = 1\nvalue = [0, 1]"] ;
1011 -> 1013 ;
1014 [label="gini = 0.0\nsamples = 149\nvalue = [149, 0]"] ;
1006 -> 1014 ;
1015 [label="X[202] <= 0.5\ngini = 0.128\nsamples = 29\nvalue = [27, 2]"] ;
1005 -> 1015 ;
1016 [label="X[185] <= 0.5\ngini = 0.071\nsamples = 27\nvalue = [26, 1]"] ;
1015 -> 1016 ;
1017 [label="gini = 0.0\nsamples = 23\nvalue = [23, 0]"] ;
1016 -> 1017 ;
1018 [label="X[246] <= 1993.0\ngini = 0.375\nsamples = 4\nvalue = [3, 1]"] ;
1016 -> 1018 ;
1019 [label="gini = 0.0\nsamples = 3\nvalue = [3, 0]"] ;
1018 -> 1019 ;
1020 [label="gini = 0.0\nsamples = 1\nvalue = [0, 1]"] ;
1018 -> 1020 ;
1021 [label="X[163] <= 0.5\ngini = 0.5\nsamples = 2\nvalue = [1, 1]"] ;
1015 -> 1021 ;
1022 [label="gini = 0.0\nsamples = 1\nvalue = [0, 1]"] ;
1021 -> 1022 ;
1023 [label="gini = 0.0\nsamples = 1\nvalue = [1, 0]"] ;
1021 -> 1023 ;
1024 [label="X[236] <= 0.5\ngini = 0.159\nsamples = 23\nvalue = [21, 2]"] ;
1004 -> 1024 ;
1025 [label="gini = 0.0\nsamples = 11\nvalue = [11, 0]"] ;
1024 -> 1025 ;
1026 [label="X[134] <= 0.5\ngini = 0.278\nsamples = 12\nvalue = [10, 2]"] ;
1024 -> 1026 ;
1027 [label="X[149] <= 0.5\ngini = 0.18\nsamples = 10\nvalue = [9, 1]"] ;
1026 -> 1027 ;
1028 [label="gini = 0.0\nsamples = 8\nvalue = [8, 0]"] ;
1027 -> 1028 ;
1029 [label="X[58] <= 0.5\ngini = 0.5\nsamples = 2\nvalue = [1, 1]"] ;
1027 -> 1029 ;
1030 [label="gini = 0.0\nsamples = 1\nvalue = [1, 0]"] ;
1029 -> 1030 ;
1031 [label="gini = 0.0\nsamples = 1\nvalue = [0, 1]"] ;
1029 -> 1031 ;
1032 [label="X[180] <= 0.5\ngini = 0.5\nsamples = 2\nvalue = [1, 1]"] ;
1026 -> 1032 ;
1033 [label="gini = 0.0\nsamples = 1\nvalue = [0, 1]"] ;
1032 -> 1033 ;
1034 [label="gini = 0.0\nsamples = 1\nvalue = [1, 0]"] ;
1032 -> 1034 ;
1035 [label="X[246] <= 1989.5\ngini = 0.444\nsamples = 3\nvalue = [2, 1]"] ;
1003 -> 1035 ;
1036 [label="gini = 0.0\nsamples = 1\nvalue = [0, 1]"] ;
1035 -> 1036 ;
1037 [label="gini = 0.0\nsamples = 2\nvalue = [2, 0]"] ;
1035 -> 1037 ;
1038 [label="X[58] <= 0.5\ngini = 0.266\nsamples = 19\nvalue = [16, 3]"] ;
1002 -> 1038 ;
1039 [label="X[246] <= 1997.5\ngini = 0.142\nsamples = 13\nvalue = [12, 1]"] ;
1038 -> 1039 ;
1040 [label="gini = 0.0\nsamples = 12\nvalue = [12, 0]"] ;
1039 -> 1040 ;
1041 [label="gini = 0.0\nsamples = 1\nvalue = [0, 1]"] ;
1039 -> 1041 ;
1042 [label="X[211] <= 0.5\ngini = 0.444\nsamples = 6\nvalue = [4, 2]"] ;
1038 -> 1042 ;
1043 [label="gini = 0.0\nsamples = 2\nvalue = [0, 2]"] ;
1042 -> 1043 ;
1044 [label="gini = 0.0\nsamples = 4\nvalue = [4, 0]"] ;
1042 -> 1044 ;
1045 [label="X[203] <= 0.5\ngini = 0.32\nsamples = 10\nvalue = [8, 2]"] ;
1001 -> 1045 ;
1046 [label="X[246] <= 1991.5\ngini = 0.5\nsamples = 4\nvalue = [2, 2]"] ;
1045 -> 1046 ;
1047 [label="gini = 0.0\nsamples = 2\nvalue = [0, 2]"] ;
1046 -> 1047 ;
1048 [label="gini = 0.0\nsamples = 2\nvalue = [2, 0]"] ;
1046 -> 1048 ;
1049 [label="gini = 0.0\nsamples = 6\nvalue = [6, 0]"] ;
1045 -> 1049 ;
1050 [label="X[141] <= 0.5\ngini = 0.5\nsamples = 2\nvalue = [1, 1]"] ;
1000 -> 1050 ;
1051 [label="gini = 0.0\nsamples = 1\nvalue = [0, 1]"] ;
1050 -> 1051 ;
1052 [label="gini = 0.0\nsamples = 1\nvalue = [1, 0]"] ;
1050 -> 1052 ;
1053 [label="X[183] <= 0.5\ngini = 0.375\nsamples = 4\nvalue = [3, 1]"] ;
951 -> 1053 ;
1054 [label="gini = 0.0\nsamples = 1\nvalue = [0, 1]"] ;
1053 -> 1054 ;
1055 [label="gini = 0.0\nsamples = 3\nvalue = [3, 0]"] ;
1053 -> 1055 ;
1056 [label="X[49] <= 0.5\ngini = 0.5\nsamples = 2\nvalue = [1, 1]"] ;
950 -> 1056 ;
1057 [label="gini = 0.0\nsamples = 1\nvalue = [0, 1]"] ;
1056 -> 1057 ;
1058 [label="gini = 0.0\nsamples = 1\nvalue = [1, 0]"] ;
1056 -> 1058 ;
1059 [label="gini = 0.0\nsamples = 1\nvalue = [0, 1]"] ;
949 -> 1059 ;
1060 [label="X[193] <= 0.5\ngini = 0.148\nsamples = 62\nvalue = [57, 5]"] ;
778 -> 1060 ;
1061 [label="X[208] <= 0.5\ngini = 0.098\nsamples = 58\nvalue = [55, 3]"] ;
1060 -> 1061 ;
1062 [label="X[35] <= 0.5\ngini = 0.04\nsamples = 49\nvalue = [48, 1]"] ;
1061 -> 1062 ;
1063 [label="gini = 0.0\nsamples = 45\nvalue = [45, 0]"] ;
1062 -> 1063 ;
1064 [label="X[143] <= 0.5\ngini = 0.375\nsamples = 4\nvalue = [3, 1]"] ;
1062 -> 1064 ;
1065 [label="gini = 0.0\nsamples = 3\nvalue = [3, 0]"] ;
1064 -> 1065 ;
1066 [label="gini = 0.0\nsamples = 1\nvalue = [0, 1]"] ;
1064 -> 1066 ;
1067 [label="X[246] <= 1984.0\ngini = 0.346\nsamples = 9\nvalue = [7, 2]"] ;
1061 -> 1067 ;
1068 [label="gini = 0.0\nsamples = 2\nvalue = [0, 2]"] ;
1067 -> 1068 ;
1069 [label="gini = 0.0\nsamples = 7\nvalue = [7, 0]"] ;
1067 -> 1069 ;
1070 [label="X[176] <= 0.5\ngini = 0.5\nsamples = 4\nvalue = [2, 2]"] ;
1060 -> 1070 ;
1071 [label="gini = 0.0\nsamples = 1\nvalue = [0, 1]"] ;
1070 -> 1071 ;
1072 [label="X[246] <= 1998.5\ngini = 0.444\nsamples = 3\nvalue = [2, 1]"] ;
1070 -> 1072 ;
1073 [label="gini = 0.0\nsamples = 2\nvalue = [2, 0]"] ;
1072 -> 1073 ;
1074 [label="gini = 0.0\nsamples = 1\nvalue = [0, 1]"] ;
1072 -> 1074 ;
1075 [label="X[59] <= 0.5\ngini = 0.375\nsamples = 8\nvalue = [6, 2]"] ;
777 -> 1075 ;
1076 [label="X[73] <= 0.5\ngini = 0.245\nsamples = 7\nvalue = [6, 1]"] ;
1075 -> 1076 ;
1077 [label="gini = 0.0\nsamples = 6\nvalue = [6, 0]"] ;
1076 -> 1077 ;
1078 [label="gini = 0.0\nsamples = 1\nvalue = [0, 1]"] ;
1076 -> 1078 ;
1079 [label="gini = 0.0\nsamples = 1\nvalue = [0, 1]"] ;
1075 -> 1079 ;
1080 [label="X[52] <= 0.5\ngini = 0.32\nsamples = 15\nvalue = [12, 3]"] ;
776 -> 1080 ;
1081 [label="gini = 0.0\nsamples = 2\nvalue = [0, 2]"] ;
1080 -> 1081 ;
1082 [label="X[163] <= 0.5\ngini = 0.142\nsamples = 13\nvalue = [12, 1]"] ;
1080 -> 1082 ;
1083 [label="gini = 0.0\nsamples = 12\nvalue = [12, 0]"] ;
1082 -> 1083 ;
1084 [label="gini = 0.0\nsamples = 1\nvalue = [0, 1]"] ;
1082 -> 1084 ;
1085 [label="X[213] <= 0.5\ngini = 0.167\nsamples = 109\nvalue = [99, 10]"] ;
775 -> 1085 ;
1086 [label="X[246] <= 2012.0\ngini = 0.153\nsamples = 108\nvalue = [99, 9]"] ;
1085 -> 1086 ;
1087 [label="X[34] <= 0.5\ngini = 0.138\nsamples = 107\nvalue = [99, 8]"] ;
1086 -> 1087 ;
1088 [label="X[194] <= 0.5\ngini = 0.124\nsamples = 105\nvalue = [98, 7]"] ;
1087 -> 1088 ;
1089 [label="X[80] <= 0.5\ngini = 0.11\nsamples = 103\nvalue = [97, 6]"] ;
1088 -> 1089 ;
1090 [label="X[41] <= 0.5\ngini = 0.094\nsamples = 101\nvalue = [96, 5]"] ;
1089 -> 1090 ;
1091 [label="X[54] <= 0.5\ngini = 0.078\nsamples = 99\nvalue = [95, 4]"] ;
1090 -> 1091 ;
1092 [label="X[171] <= 0.5\ngini = 0.061\nsamples = 96\nvalue = [93, 3]"] ;
1091 -> 1092 ;
1093 [label="X[160] <= 0.5\ngini = 0.042\nsamples = 93\nvalue = [91, 2]"] ;
1092 -> 1093 ;
1094 [label="X[37] <= 0.5\ngini = 0.022\nsamples = 89\nvalue = [88, 1]"] ;
1093 -> 1094 ;
1095 [label="gini = 0.0\nsamples = 81\nvalue = [81, 0]"] ;
1094 -> 1095 ;
1096 [label="X[149] <= 0.5\ngini = 0.219\nsamples = 8\nvalue = [7, 1]"] ;
1094 -> 1096 ;
1097 [label="gini = 0.0\nsamples = 7\nvalue = [7, 0]"] ;
1096 -> 1097 ;
1098 [label="gini = 0.0\nsamples = 1\nvalue = [0, 1]"] ;
1096 -> 1098 ;
1099 [label="X[218] <= 0.5\ngini = 0.375\nsamples = 4\nvalue = [3, 1]"] ;
1093 -> 1099 ;
1100 [label="gini = 0.0\nsamples = 3\nvalue = [3, 0]"] ;
1099 -> 1100 ;
1101 [label="gini = 0.0\nsamples = 1\nvalue = [0, 1]"] ;
1099 -> 1101 ;
1102 [label="X[218] <= 0.5\ngini = 0.444\nsamples = 3\nvalue = [2, 1]"] ;
1092 -> 1102 ;
1103 [label="gini = 0.0\nsamples = 2\nvalue = [2, 0]"] ;
1102 -> 1103 ;
1104 [label="gini = 0.0\nsamples = 1\nvalue = [0, 1]"] ;
1102 -> 1104 ;
1105 [label="X[246] <= 2003.0\ngini = 0.444\nsamples = 3\nvalue = [2, 1]"] ;
1091 -> 1105 ;
1106 [label="gini = 0.0\nsamples = 2\nvalue = [2, 0]"] ;
1105 -> 1106 ;
1107 [label="gini = 0.0\nsamples = 1\nvalue = [0, 1]"] ;
1105 -> 1107 ;
1108 [label="X[14] <= 0.5\ngini = 0.5\nsamples = 2\nvalue = [1, 1]"] ;
1090 -> 1108 ;
1109 [label="gini = 0.0\nsamples = 1\nvalue = [0, 1]"] ;
1108 -> 1109 ;
1110 [label="gini = 0.0\nsamples = 1\nvalue = [1, 0]"] ;
1108 -> 1110 ;
1111 [label="X[1] <= 0.5\ngini = 0.5\nsamples = 2\nvalue = [1, 1]"] ;
1089 -> 1111 ;
1112 [label="gini = 0.0\nsamples = 1\nvalue = [0, 1]"] ;
1111 -> 1112 ;
1113 [label="gini = 0.0\nsamples = 1\nvalue = [1, 0]"] ;
1111 -> 1113 ;
1114 [label="X[176] <= 0.5\ngini = 0.5\nsamples = 2\nvalue = [1, 1]"] ;
1088 -> 1114 ;
1115 [label="gini = 0.0\nsamples = 1\nvalue = [1, 0]"] ;
1114 -> 1115 ;
1116 [label="gini = 0.0\nsamples = 1\nvalue = [0, 1]"] ;
1114 -> 1116 ;
1117 [label="X[135] <= 0.5\ngini = 0.5\nsamples = 2\nvalue = [1, 1]"] ;
1087 -> 1117 ;
1118 [label="gini = 0.0\nsamples = 1\nvalue = [0, 1]"] ;
1117 -> 1118 ;
1119 [label="gini = 0.0\nsamples = 1\nvalue = [1, 0]"] ;
1117 -> 1119 ;
1120 [label="gini = 0.0\nsamples = 1\nvalue = [0, 1]"] ;
1086 -> 1120 ;
1121 [label="gini = 0.0\nsamples = 1\nvalue = [0, 1]"] ;
1085 -> 1121 ;
1122 [label="X[246] <= 1979.5\ngini = 0.355\nsamples = 13\nvalue = [10, 3]"] ;
774 -> 1122 ;
1123 [label="X[70] <= 0.5\ngini = 0.375\nsamples = 4\nvalue = [1, 3]"] ;
1122 -> 1123 ;
1124 [label="gini = 0.0\nsamples = 3\nvalue = [0, 3]"] ;
1123 -> 1124 ;
1125 [label="gini = 0.0\nsamples = 1\nvalue = [1, 0]"] ;
1123 -> 1125 ;
1126 [label="gini = 0.0\nsamples = 9\nvalue = [9, 0]"] ;
1122 -> 1126 ;
1127 [label="X[246] <= 1960.5\ngini = 0.49\nsamples = 7\nvalue = [3, 4]"] ;
671 -> 1127 ;
1128 [label="gini = 0.0\nsamples = 4\nvalue = [0, 4]"] ;
1127 -> 1128 ;
1129 [label="gini = 0.0\nsamples = 3\nvalue = [3, 0]"] ;
1127 -> 1129 ;
1130 [label="X[36] <= 0.5\ngini = 0.175\nsamples = 4473\nvalue = [4041, 432]"] ;
540 -> 1130 ;
1131 [label="X[246] <= 1994.5\ngini = 0.163\nsamples = 4335\nvalue = [3948, 387]"] ;
1130 -> 1131 ;
1132 [label="X[45] <= 0.5\ngini = 0.184\nsamples = 3293\nvalue = [2955, 338]"] ;
1131 -> 1132 ;
1133 [label="X[11] <= 0.5\ngini = 0.181\nsamples = 3269\nvalue = [2940, 329]"] ;
1132 -> 1133 ;
1134 [label="X[200] <= 0.5\ngini = 0.194\nsamples = 2853\nvalue = [2543, 310]"] ;
1133 -> 1134 ;
1135 [label="X[157] <= 0.5\ngini = 0.191\nsamples = 2833\nvalue = [2530, 303]"] ;
1134 -> 1135 ;
1136 [label="X[223] <= 0.5\ngini = 0.185\nsamples = 2755\nvalue = [2470, 285]"] ;
1135 -> 1136 ;
1137 [label="X[23] <= 0.5\ngini = 0.181\nsamples = 2715\nvalue = [2441, 274]"] ;
1136 -> 1137 ;
1138 [label="X[142] <= 0.5\ngini = 0.177\nsamples = 2656\nvalue = [2396, 260]"] ;
1137 -> 1138 ;
1139 [label="X[178] <= 0.5\ngini = 0.147\nsamples = 1470\nvalue = [1353, 117]"] ;
1138 -> 1139 ;
1140 [label="X[150] <= 0.5\ngini = 0.129\nsamples = 1268\nvalue = [1180, 88]"] ;
1139 -> 1140 ;
1141 [label="X[21] <= 0.5\ngini = 0.117\nsamples = 1214\nvalue = [1138, 76]"] ;
1140 -> 1141 ;
1142 [label="X[127] <= 0.5\ngini = 0.116\nsamples = 1213\nvalue = [1138, 75]"] ;
1141 -> 1142 ;
1143 [label="X[217] <= 0.5\ngini = 0.109\nsamples = 1177\nvalue = [1109, 68]"] ;
1142 -> 1143 ;
1144 [label="X[120] <= 0.5\ngini = 0.104\nsamples = 1161\nvalue = [1097, 64]"] ;
1143 -> 1144 ;
1145 [label="X[59] <= 0.5\ngini = 0.103\nsamples = 1159\nvalue = [1096, 63]"] ;
1144 -> 1145 ;
1146 [label="X[197] <= 0.5\ngini = 0.089\nsamples = 969\nvalue = [924, 45]"] ;
1145 -> 1146 ;
1147 [label="X[213] <= 0.5\ngini = 0.085\nsamples = 964\nvalue = [921, 43]"] ;
1146 -> 1147 ;
1148 [label="X[224] <= 0.5\ngini = 0.084\nsamples = 962\nvalue = [920, 42]"] ;
1147 -> 1148 ;
1149 [label="X[246] <= 1938.5\ngini = 0.082\nsamples = 960\nvalue = [919, 41]"] ;
1148 -> 1149 ;
1150 [label="X[215] <= 0.5\ngini = 0.444\nsamples = 3\nvalue = [2, 1]"] ;
1149 -> 1150 ;
1151 [label="gini = 0.0\nsamples = 2\nvalue = [2, 0]"] ;
1150 -> 1151 ;
1152 [label="gini = 0.0\nsamples = 1\nvalue = [0, 1]"] ;
1150 -> 1152 ;
1153 [label="X[183] <= 0.5\ngini = 0.08\nsamples = 957\nvalue = [917, 40]"] ;
1149 -> 1153 ;
1154 [label="X[191] <= 0.5\ngini = 0.012\nsamples = 167\nvalue = [166, 1]"] ;
1153 -> 1154 ;
1155 [label="gini = 0.0\nsamples = 150\nvalue = [150, 0]"] ;
1154 -> 1155 ;
1156 [label="X[211] <= 0.5\ngini = 0.111\nsamples = 17\nvalue = [16, 1]"] ;
1154 -> 1156 ;
1157 [label="gini = 0.0\nsamples = 14\nvalue = [14, 0]"] ;
1156 -> 1157 ;
1158 [label="X[203] <= 0.5\ngini = 0.444\nsamples = 3\nvalue = [2, 1]"] ;
1156 -> 1158 ;
1159 [label="gini = 0.0\nsamples = 2\nvalue = [2, 0]"] ;
1158 -> 1159 ;
1160 [label="gini = 0.0\nsamples = 1\nvalue = [0, 1]"] ;
1158 -> 1160 ;
1161 [label="X[201] <= 0.5\ngini = 0.094\nsamples = 790\nvalue = [751, 39]"] ;
1153 -> 1161 ;
1162 [label="X[171] <= 0.5\ngini = 0.081\nsamples = 682\nvalue = [653, 29]"] ;
1161 -> 1162 ;
1163 [label="X[231] <= 0.5\ngini = 0.079\nsamples = 679\nvalue = [651, 28]"] ;
1162 -> 1163 ;
1164 [label="X[218] <= 0.5\ngini = 0.075\nsamples = 669\nvalue = [643, 26]"] ;
1163 -> 1164 ;
1165 [label="X[144] <= 0.5\ngini = 0.072\nsamples = 664\nvalue = [639, 25]"] ;
1164 -> 1165 ;
1166 [label="X[63] <= 0.5\ngini = 0.061\nsamples = 568\nvalue = [550, 18]"] ;
1165 -> 1166 ;
1167 [label="X[180] <= 0.5\ngini = 0.058\nsamples = 565\nvalue = [548, 17]"] ;
1166 -> 1167 ;
1168 [label="X[130] <= 0.5\ngini = 0.053\nsamples = 550\nvalue = [535, 15]"] ;
1167 -> 1168 ;
1169 [label="X[227] <= 0.5\ngini = 0.05\nsamples = 546\nvalue = [532, 14]"] ;
1168 -> 1169 ;
1170 [label="X[160] <= 0.5\ngini = 0.047\nsamples = 542\nvalue = [529, 13]"] ;
1169 -> 1170 ;
1171 [label="X[132] <= 0.5\ngini = 0.036\nsamples = 487\nvalue = [478, 9]"] ;
1170 -> 1171 ;
1172 [label="X[56] <= 0.5\ngini = 0.033\nsamples = 480\nvalue = [472, 8]"] ;
1171 -> 1172 ;
1173 [label="X[165] <= 0.5\ngini = 0.025\nsamples = 395\nvalue = [390, 5]"] ;
1172 -> 1173 ;
1174 [label="X[73] <= 0.5\ngini = 0.021\nsamples = 380\nvalue = [376, 4]"] ;
1173 -> 1174 ;
1175 [label="gini = 0.0\nsamples = 175\nvalue = [175, 0]"] ;
1174 -> 1175 ;
1176 [label="X[246] <= 1965.5\ngini = 0.038\nsamples = 205\nvalue = [201, 4]"] ;
1174 -> 1176 ;
1177 [label="gini = 0.0\nsamples = 78\nvalue = [78, 0]"] ;
1176 -> 1177 ;
1178 [label="X[246] <= 1966.5\ngini = 0.061\nsamples = 127\nvalue = [123, 4]"] ;
1176 -> 1178 ;
1179 [label="X[205] <= 0.5\ngini = 0.375\nsamples = 4\nvalue = [3, 1]"] ;
1178 -> 1179 ;
1180 [label="gini = 0.0\nsamples = 3\nvalue = [3, 0]"] ;
1179 -> 1180 ;
1181 [label="gini = 0.0\nsamples = 1\nvalue = [0, 1]"] ;
1179 -> 1181 ;
1182 [label="X[152] <= 0.5\ngini = 0.048\nsamples = 123\nvalue = [120, 3]"] ;
1178 -> 1182 ;
1183 [label="gini = 0.0\nsamples = 45\nvalue = [45, 0]"] ;
1182 -> 1183 ;
1184 [label="X[210] <= 0.5\ngini = 0.074\nsamples = 78\nvalue = [75, 3]"] ;
1182 -> 1184 ;
1185 [label="X[246] <= 1985.5\ngini = 0.056\nsamples = 69\nvalue = [67, 2]"] ;
1184 -> 1185 ;
1186 [label="gini = 0.0\nsamples = 42\nvalue = [42, 0]"] ;
1185 -> 1186 ;
1187 [label="X[246] <= 1986.5\ngini = 0.137\nsamples = 27\nvalue = [25, 2]"] ;
1185 -> 1187 ;
1188 [label="gini = 0.0\nsamples = 1\nvalue = [0, 1]"] ;
1187 -> 1188 ;
1189 [label="X[212] <= 0.5\ngini = 0.074\nsamples = 26\nvalue = [25, 1]"] ;
1187 -> 1189 ;
1190 [label="gini = 0.0\nsamples = 21\nvalue = [21, 0]"] ;
1189 -> 1190 ;
1191 [label="X[141] <= 0.5\ngini = 0.32\nsamples = 5\nvalue = [4, 1]"] ;
1189 -> 1191 ;
1192 [label="gini = 0.0\nsamples = 3\nvalue = [3, 0]"] ;
1191 -> 1192 ;
1193 [label="X[14] <= 0.5\ngini = 0.5\nsamples = 2\nvalue = [1, 1]"] ;
1191 -> 1193 ;
1194 [label="gini = 0.0\nsamples = 1\nvalue = [1, 0]"] ;
1193 -> 1194 ;
1195 [label="gini = 0.0\nsamples = 1\nvalue = [0, 1]"] ;
1193 -> 1195 ;
1196 [label="X[149] <= 0.5\ngini = 0.198\nsamples = 9\nvalue = [8, 1]"] ;
1184 -> 1196 ;
1197 [label="gini = 0.0\nsamples = 8\nvalue = [8, 0]"] ;
1196 -> 1197 ;
1198 [label="gini = 0.0\nsamples = 1\nvalue = [0, 1]"] ;
1196 -> 1198 ;
1199 [label="X[81] <= 0.5\ngini = 0.124\nsamples = 15\nvalue = [14, 1]"] ;
1173 -> 1199 ;
1200 [label="gini = 0.0\nsamples = 12\nvalue = [12, 0]"] ;
1199 -> 1200 ;
1201 [label="X[209] <= 0.5\ngini = 0.444\nsamples = 3\nvalue = [2, 1]"] ;
1199 -> 1201 ;
1202 [label="gini = 0.0\nsamples = 1\nvalue = [0, 1]"] ;
1201 -> 1202 ;
1203 [label="gini = 0.0\nsamples = 2\nvalue = [2, 0]"] ;
1201 -> 1203 ;
1204 [label="X[202] <= 0.5\ngini = 0.068\nsamples = 85\nvalue = [82, 3]"] ;
1172 -> 1204 ;
1205 [label="X[122] <= 0.5\ngini = 0.026\nsamples = 77\nvalue = [76, 1]"] ;
1204 -> 1205 ;
1206 [label="gini = 0.0\nsamples = 72\nvalue = [72, 0]"] ;
1205 -> 1206 ;
1207 [label="X[149] <= 0.5\ngini = 0.32\nsamples = 5\nvalue = [4, 1]"] ;
1205 -> 1207 ;
1208 [label="gini = 0.0\nsamples = 3\nvalue = [3, 0]"] ;
1207 -> 1208 ;
1209 [label="X[212] <= 0.5\ngini = 0.5\nsamples = 2\nvalue = [1, 1]"] ;
1207 -> 1209 ;
1210 [label="gini = 0.0\nsamples = 1\nvalue = [1, 0]"] ;
1209 -> 1210 ;
1211 [label="gini = 0.0\nsamples = 1\nvalue = [0, 1]"] ;
1209 -> 1211 ;
1212 [label="X[15] <= 0.5\ngini = 0.375\nsamples = 8\nvalue = [6, 2]"] ;
1204 -> 1212 ;
1213 [label="X[134] <= 0.5\ngini = 0.245\nsamples = 7\nvalue = [6, 1]"] ;
1212 -> 1213 ;
1214 [label="X[228] <= 0.5\ngini = 0.444\nsamples = 3\nvalue = [2, 1]"] ;
1213 -> 1214 ;
1215 [label="gini = 0.0\nsamples = 1\nvalue = [0, 1]"] ;
1214 -> 1215 ;
1216 [label="gini = 0.0\nsamples = 2\nvalue = [2, 0]"] ;
1214 -> 1216 ;
1217 [label="gini = 0.0\nsamples = 4\nvalue = [4, 0]"] ;
1213 -> 1217 ;
1218 [label="gini = 0.0\nsamples = 1\nvalue = [0, 1]"] ;
1212 -> 1218 ;
1219 [label="X[246] <= 1963.5\ngini = 0.245\nsamples = 7\nvalue = [6, 1]"] ;
1171 -> 1219 ;
1220 [label="gini = 0.0\nsamples = 1\nvalue = [0, 1]"] ;
1219 -> 1220 ;
1221 [label="gini = 0.0\nsamples = 6\nvalue = [6, 0]"] ;
1219 -> 1221 ;
1222 [label="X[246] <= 1991.5\ngini = 0.135\nsamples = 55\nvalue = [51, 4]"] ;
1170 -> 1222 ;
1223 [label="X[210] <= 0.5\ngini = 0.075\nsamples = 51\nvalue = [49, 2]"] ;
1222 -> 1223 ;
1224 [label="X[246] <= 1962.5\ngini = 0.039\nsamples = 50\nvalue = [49, 1]"] ;
1223 -> 1224 ;
1225 [label="X[246] <= 1961.5\ngini = 0.133\nsamples = 14\nvalue = [13, 1]"] ;
1224 -> 1225 ;
1226 [label="gini = 0.0\nsamples = 10\nvalue = [10, 0]"] ;
1225 -> 1226 ;
1227 [label="X[212] <= 0.5\ngini = 0.375\nsamples = 4\nvalue = [3, 1]"] ;
1225 -> 1227 ;
1228 [label="X[58] <= 0.5\ngini = 0.444\nsamples = 3\nvalue = [2, 1]"] ;
1227 -> 1228 ;
1229 [label="gini = 0.0\nsamples = 1\nvalue = [1, 0]"] ;
1228 -> 1229 ;
1230 [label="gini = 0.5\nsamples = 2\nvalue = [1, 1]"] ;
1228 -> 1230 ;
1231 [label="gini = 0.0\nsamples = 1\nvalue = [1, 0]"] ;
1227 -> 1231 ;
1232 [label="gini = 0.0\nsamples = 36\nvalue = [36, 0]"] ;
1224 -> 1232 ;
1233 [label="gini = 0.0\nsamples = 1\nvalue = [0, 1]"] ;
1223 -> 1233 ;
1234 [label="X[141] <= 0.5\ngini = 0.5\nsamples = 4\nvalue = [2, 2]"] ;
1222 -> 1234 ;
1235 [label="gini = 0.0\nsamples = 2\nvalue = [2, 0]"] ;
1234 -> 1235 ;
1236 [label="gini = 0.0\nsamples = 2\nvalue = [0, 2]"] ;
1234 -> 1236 ;
1237 [label="X[212] <= 0.5\ngini = 0.375\nsamples = 4\nvalue = [3, 1]"] ;
1169 -> 1237 ;
1238 [label="gini = 0.0\nsamples = 3\nvalue = [3, 0]"] ;
1237 -> 1238 ;
1239 [label="gini = 0.0\nsamples = 1\nvalue = [0, 1]"] ;
1237 -> 1239 ;
1240 [label="X[151] <= 0.5\ngini = 0.375\nsamples = 4\nvalue = [3, 1]"] ;
1168 -> 1240 ;
1241 [label="gini = 0.0\nsamples = 3\nvalue = [3, 0]"] ;
1240 -> 1241 ;
1242 [label="gini = 0.0\nsamples = 1\nvalue = [0, 1]"] ;
1240 -> 1242 ;
1243 [label="X[121] <= 0.5\ngini = 0.231\nsamples = 15\nvalue = [13, 2]"] ;
1167 -> 1243 ;
1244 [label="X[54] <= 0.5\ngini = 0.133\nsamples = 14\nvalue = [13, 1]"] ;
1243 -> 1244 ;
1245 [label="gini = 0.0\nsamples = 13\nvalue = [13, 0]"] ;
1244 -> 1245 ;
1246 [label="gini = 0.0\nsamples = 1\nvalue = [0, 1]"] ;
1244 -> 1246 ;
1247 [label="gini = 0.0\nsamples = 1\nvalue = [0, 1]"] ;
1243 -> 1247 ;
1248 [label="X[215] <= 0.5\ngini = 0.444\nsamples = 3\nvalue = [2, 1]"] ;
1166 -> 1248 ;
1249 [label="gini = 0.0\nsamples = 2\nvalue = [2, 0]"] ;
1248 -> 1249 ;
1250 [label="gini = 0.0\nsamples = 1\nvalue = [0, 1]"] ;
1248 -> 1250 ;
1251 [label="X[246] <= 1992.5\ngini = 0.135\nsamples = 96\nvalue = [89, 7]"] ;
1165 -> 1251 ;
1252 [label="X[169] <= 0.5\ngini = 0.104\nsamples = 91\nvalue = [86, 5]"] ;
1251 -> 1252 ;
1253 [label="X[122] <= 0.5\ngini = 0.086\nsamples = 89\nvalue = [85, 4]"] ;
1252 -> 1253 ;
1254 [label="X[246] <= 1962.5\ngini = 0.067\nsamples = 86\nvalue = [83, 3]"] ;
1253 -> 1254 ;
1255 [label="X[246] <= 1961.5\ngini = 0.219\nsamples = 24\nvalue = [21, 3]"] ;
1254 -> 1255 ;
1256 [label="X[211] <= 0.5\ngini = 0.159\nsamples = 23\nvalue = [21, 2]"] ;
1255 -> 1256 ;
1257 [label="gini = 0.0\nsamples = 16\nvalue = [16, 0]"] ;
1256 -> 1257 ;
1258 [label="X[163] <= 0.5\ngini = 0.408\nsamples = 7\nvalue = [5, 2]"] ;
1256 -> 1258 ;
1259 [label="X[57] <= 0.5\ngini = 0.278\nsamples = 6\nvalue = [5, 1]"] ;
1258 -> 1259 ;
1260 [label="gini = 0.0\nsamples = 4\nvalue = [4, 0]"] ;
1259 -> 1260 ;
